{"learner":{"attributes":{"best_iteration":"12","best_score":"0.6930345778511889","scikit_learn":"{\"_estimator_type\": \"classifier\"}"},"feature_names":["minutesSinceDeathCross","trendStrength","trendStrengthSlope3","rsi","rsiSlope3","shortCrossoverGap","isGreen","closeLocation","volatilityRatio"],"feature_types":["int","float","float","float","float","float","int","float","float"],"gradient_booster":{"model":{"cats":{"enc":[],"feature_segments":[],"sorted_idx":[]},"gbtree_model_param":{"num_parallel_tree":"1","num_trees":"63"},"iteration_indptr":[0,1,2,3,4,5,6,7,8,9,10,11,12,13,14,15,16,17,18,19,20,21,22,23,24,25,26,27,28,29,30,31,32,33,34,35,36,37,38,39,40,41,42,43,44,45,46,47,48,49,50,51,52,53,54,55,56,57,58,59,60,61,62,63],"tree_info":[0,0,0,0,0,0,0,0,0,0,0,0,0,0,0,0,0,0,0,0,0,0,0,0,0,0,0,0,0,0,0,0,0,0,0,0,0,0,0,0,0,0,0,0,0,0,0,0,0,0,0,0,0,0,0,0,0,0,0,0,0,0,0],"trees":[{"base_weights":[8.1759057E-4,-2.0364681E-2,6.597441E-2,-7.780025E-2,-4.817171E-3,7.861944E-2,-7.477923E-2,-6.8361536E-2,-2.0445351E-1,1.52334E-3,-1.09837756E-1,3.675049E-2,9.5935255E-2,-1.592739E-1,1.3906045E-1,-7.5598955E-2,6.971589E-2,-7.9342894E-2,-3.3676603E-1,5.2468264E-3,-9.247735E-2,3.956056E-3,-1.7702848E-1,1.2422113E-1,-9.232296E-4,-2.3578125E-1,9.814321E-2,-2.5332043E-2,-1.3326912E-1,2.961343E-1,-3.8970936E-2,-4.9944747E-2,-1.1246819E-1,-1.8159598E-1,1.18632235E-1,-1.9366767E-2,-3.1067988E-2,-1.4623122E-1,-4.3212155E-1,1.3254539E-2,-3.636867E-2,-3.3532858E-1,-7.270795E-2,3.2597568E-2,-3.744535E-1,-4.7807154E-1,-1.6239084E-1,3.7511727E-1,9.681789E-2,-3.5478048E-2,7.967439E-2,-5.2142773E-2,-1.3809666E-2,4.631403E-1,9.483812E-2,-1.731453E-1,2.9420096E-1,-1.8307933E-3,3.2439867E-1,3.5545594E-1,-1.4336158E-1,-1.6802764E-3,5.116782E-3,-6.255305E-3,-2.6620647E-3,3.2637597E-3,-2.583291E-2,7.1171527E-3,-1.8955895E-3,-1.966831E-3,1.6438516E-2,-1.2387103E-2,-3.3935407E-4,-2.8914208E-2,-8.714198E-3,3.8148195E-4,1.7674562E-2,-5.117533E-5,-4.5980033E-3,-2.5158084E-4,-1.5224981E-2,6.5655448E-3,-3.0769221E-3,-4.449526E-3,3.378857E-3,-2.0701181E-2,-2.0046714E-3,-6.141228E-4,-2.5332043E-2,1.4937944E-3,-6.163683E-3,6.5516555E-3,2.803588E-2,-8.813776E-3,3.2651005E-3,7.344951E-3,-1.5532622E-3,9.676573E-4,5.8392505E-3,1.9004926E-3,-9.102835E-3,1.7004669E-2,-0E0,2.6650538E-3,5.572521E-3,-2.8725597E-3,-9.01211E-3,1.2943334E-2,-9.102835E-3,-1.8307933E-3,1.0703153E-2,1.56913E-2,5.6908047E-4,-6.7631253E-3,1.17897745E-2],"categories":[],"categories_nodes":[],"categories_segments":[],"categories_sizes":[],"default_left":[0,0,0,0,0,0,0,0,0,0,0,0,0,0,0,0,0,0,0,0,0,0,0,0,0,0,0,0,0,0,0,0,0,0,0,0,0,0,0,0,0,0,0,0,0,0,0,0,0,0,0,0,0,0,0,0,0,0,0,0,0,0,0,0,0,0,0,0,0,0,0,0,0,0,0,0,0,0,0,0,0,0,0,0,0,0,0,0,0,0,0,0,0,0,0,0,0,0,0,0,0,0,0,0,0,0,0,0,0,0,0,0,0,0,0],"id":0,"left_children":[1,3,5,7,9,11,13,15,17,19,21,23,25,27,29,31,33,35,37,39,41,43,45,47,49,51,53,-1,55,57,59,61,63,65,67,-1,69,71,73,75,77,79,81,83,85,87,89,91,93,95,97,99,-1,101,103,105,107,-1,109,111,113,-1,-1,-1,-1,-1,-1,-1,-1,-1,-1,-1,-1,-1,-1,-1,-1,-1,-1,-1,-1,-1,-1,-1,-1,-1,-1,-1,-1,-1,-1,-1,-1,-1,-1,-1,-1,-1,-1,-1,-1,-1,-1,-1,-1,-1,-1,-1,-1,-1,-1,-1,-1,-1,-1],"loss_changes":[7.3641045E1,3.5898544E1,2.3315495E1,1.0077E1,2.115166E1,8.638977E0,1.9513655E1,7.987591E0,9.496721E0,1.0414441E1,1.3915014E1,1.1686438E1,6.1968155E0,1.3086218E1,8.664377E0,7.0832443E0,4.867682E0,8.02813E0,4.74321E0,9.568585E0,5.1884384E0,7.1213403E0,4.5473366E0,7.0202427E0,6.8448057E0,1.9734647E0,9.812744E0,0E0,1.2814154E1,1.821312E0,5.8823495E0,5.9596777E0,6.887699E0,1.3090431E1,7.3096013E0,0E0,5.548722E0,3.357649E0,1.2855877E1,7.1632304E0,1.8679085E1,4.397604E0,9.148481E0,9.085972E0,4.0064645E0,7.9549828E0,1.00732155E1,7.99942E0,4.504119E0,7.8322744E0,3.8839703E0,1.1413573E0,0E0,3.5502796E0,4.3956985E0,6.5176373E0,5.5428843E0,0E0,2.1014538E0,1.3722014E0,5.1767306E0,0E0,0E0,0E0,0E0,0E0,0E0,0E0,0E0,0E0,0E0,0E0,0E0,0E0,0E0,0E0,0E0,0E0,0E0,0E0,0E0,0E0,0E0,0E0,0E0,0E0,0E0,0E0,0E0,0E0,0E0,0E0,0E0,0E0,0E0,0E0,0E0,0E0,0E0,0E0,0E0,0E0,0E0,0E0,0E0,0E0,0E0,0E0,0E0,0E0,0E0,0E0,0E0,0E0,0E0],"parents":[2147483647,0,0,1,1,2,2,3,3,4,4,5,5,6,6,7,7,8,8,9,9,10,10,11,11,12,12,13,13,14,14,15,15,16,16,17,17,18,18,19,19,20,20,21,21,22,22,23,23,24,24,25,25,26,26,28,28,29,29,30,30,31,31,32,32,33,33,34,34,36,36,37,37,38,38,39,39,40,40,41,41,42,42,43,43,44,44,45,45,46,46,47,47,48,48,49,49,50,50,51,51,53,53,54,54,55,55,56,56,58,58,59,59,60,60],"right_children":[2,4,6,8,10,12,14,16,18,20,22,24,26,28,30,32,34,36,38,40,42,44,46,48,50,52,54,-1,56,58,60,62,64,66,68,-1,70,72,74,76,78,80,82,84,86,88,90,92,94,96,98,100,-1,102,104,106,108,-1,110,112,114,-1,-1,-1,-1,-1,-1,-1,-1,-1,-1,-1,-1,-1,-1,-1,-1,-1,-1,-1,-1,-1,-1,-1,-1,-1,-1,-1,-1,-1,-1,-1,-1,-1,-1,-1,-1,-1,-1,-1,-1,-1,-1,-1,-1,-1,-1,-1,-1,-1,-1,-1,-1,-1,-1],"split_conditions":[8.095238E-1,4.5454547E-2,7.977269E1,6.3042835E1,6.9000206E1,9.411765E-1,7.462098E1,6.0312416E1,4.6E1,7.894737E-1,3.7E1,8.4615386E-1,3.2736744E1,9E0,5.1E1,2.9E1,1.9E1,4.4141663E1,7.0396095E1,1.4460471E1,-4.9469868E1,8E-1,-1.6866444E1,-4.8338825E1,-1.1672764E1,3.1550392E1,3.5009907E1,-2.5332043E-2,7.212405E1,5.1998706E0,8.666667E-1,5.85359E1,4.1668247E1,5.303963E1,5.4E1,-1.9366767E-2,7.556997E1,6.406089E1,7.7984535E1,8.067363E1,4.1E1,5.4989803E1,-4.4515198E1,4.7058824E-1,7.241367E1,-2.3496237E1,-9.321479E-1,6.956514E0,3.414267E1,-5.342454E1,9.0909094E-1,4.330951E1,-1.3809666E-2,7.175839E1,8.4E1,4.5E1,4.3E1,-1.8307933E-3,1.6E1,1.9562065E1,1.07E2,-1.6802764E-3,5.116782E-3,-6.255305E-3,-2.6620647E-3,3.2637597E-3,-2.583291E-2,7.1171527E-3,-1.8955895E-3,-1.966831E-3,1.6438516E-2,-1.2387103E-2,-3.3935407E-4,-2.8914208E-2,-8.714198E-3,3.8148195E-4,1.7674562E-2,-5.117533E-5,-4.5980033E-3,-2.5158084E-4,-1.5224981E-2,6.5655448E-3,-3.0769221E-3,-4.449526E-3,3.378857E-3,-2.0701181E-2,-2.0046714E-3,-6.141228E-4,-2.5332043E-2,1.4937944E-3,-6.163683E-3,6.5516555E-3,2.803588E-2,-8.813776E-3,3.2651005E-3,7.344951E-3,-1.5532622E-3,9.676573E-4,5.8392505E-3,1.9004926E-3,-9.102835E-3,1.7004669E-2,-0E0,2.6650538E-3,5.572521E-3,-2.8725597E-3,-9.01211E-3,1.2943334E-2,-9.102835E-3,-1.8307933E-3,1.0703153E-2,1.56913E-2,5.6908047E-4,-6.7631253E-3,1.17897745E-2],"split_indices":[7,7,1,3,3,7,3,3,0,7,0,7,3,0,0,0,0,1,1,5,5,7,5,5,5,3,3,0,5,5,7,3,3,1,0,0,3,3,1,1,0,3,5,7,3,5,5,1,3,5,7,5,0,1,0,0,0,0,0,5,0,0,0,0,0,0,0,0,0,0,0,0,0,0,0,0,0,0,0,0,0,0,0,0,0,0,0,0,0,0,0,0,0,0,0,0,0,0,0,0,0,0,0,0,0,0,0,0,0,0,0,0,0,0,0],"split_type":[0,0,0,0,0,0,0,0,0,0,0,0,0,0,0,0,0,0,0,0,0,0,0,0,0,0,0,0,0,0,0,0,0,0,0,0,0,0,0,0,0,0,0,0,0,0,0,0,0,0,0,0,0,0,0,0,0,0,0,0,0,0,0,0,0,0,0,0,0,0,0,0,0,0,0,0,0,0,0,0,0,0,0,0,0,0,0,0,0,0,0,0,0,0,0,0,0,0,0,0,0,0,0,0,0,0,0,0,0,0,0,0,0,0,0],"sum_hessian":[5.3336055E4,4.0245934E4,1.3090122E4,8.564993E3,3.168094E4,1.2015141E4,1.074982E3,7.9775044E3,5.874885E2,2.9874506E4,1.8064329E3,3.52557E3,8.48957E3,7.725659E2,3.024161E2,7.584485E3,3.9301956E2,3.0554907E2,2.8193942E2,2.874316E4,1.1313456E3,6.685764E2,1.1378564E3,1.0639572E3,2.4616128E3,5.323796E1,8.436333E3,2.5246506E1,7.4731946E2,1.6145184E2,1.4096428E2,4.4832427E3,3.101242E3,6.1485634E1,3.3153394E2,2.1246506E1,2.8430258E2,9.74767E1,1.8446272E2,2.4116088E4,4.627073E3,8.085772E1,1.0504879E3,6.244606E2,4.4115875E1,4.824068E1,1.0896158E3,1.0046893E2,9.634883E2,1.7280604E3,7.3355237E2,3.1867039E1,2.1370922E1,7.18519E1,8.36448E3,6.857129E2,6.1606556E1,1.0372476E1,1.5107938E2,2.7491457E1,1.1347282E2,4.366901E3,1.16342186E2,6.0723425E2,2.4940078E3,4.373796E1,1.774767E1,2.0194136E2,1.2959258E2,2.7080725E2,1.349534E1,3.011898E1,6.735772E1,3.5620533E1,1.488422E2,2.4096469E4,1.9618204E1,3.5737002E3,1.0533732E3,2.9617428E1,5.124029E1,9.4847626E1,9.5564026E2,1.8907976E2,4.353808E2,1.9746893E1,2.436898E1,2.2994175E1,2.5246506E1,1.8182666E2,9.077891E2,8.135151E1,1.9117428E1,2.611937E1,9.373689E2,9.1723206E1,1.6363372E3,5.2423694E2,2.093154E2,2.1494175E1,1.0372864E1,5.835539E1,1.3496505E1,7.85525E3,5.0923074E2,4.310188E2,2.5469408E2,5.1233692E1,1.0372864E1,1.0372476E1,1.407069E2,1.661937E1,1.08720875E1,1.0022709E2,1.32457285E1],"tree_param":{"num_deleted":"0","num_feature":"9","num_nodes":"115","size_leaf_vector":"1"}},{"base_weights":[2.8315966E-4,-1.6932948E-2,8.6177096E-2,-7.667865E-2,-1.6284788E-3,9.5908225E-2,-3.069646E-2,-2.7540443E-2,-1.3652028E-1,9.503474E-3,-6.824979E-2,1.4062735E-1,6.606026E-2,-4.4195643E-1,4.261833E-4,-4.6445146E-2,8.710168E-2,-1.1618973E-1,-2.5805983E-1,1.9577539E-2,-1.46587845E-2,1.4477087E-3,-1.7086136E-1,4.831005E-2,1.662194E-1,-1.497331E-2,8.81202E-2,3.8884564E-3,-6.8470323E-1,-4.5742798E-1,2.1744436E-2,4.122729E-2,-6.986864E-2,1.0226108E-1,-1.2007622E-2,-1.8022355E-1,-8.0761425E-2,-1.731635E-1,-4.5106483E-1,7.7251217E-4,4.663412E-2,1.4539977E-2,-8.825326E-2,-1.00299075E-1,3.794944E-2,-1.9391687E-1,1.3754788E-1,1.4456545E-1,-8.44335E-2,-1.8274242E-1,1.7381263E-1,-5.1722508E-2,3.6307007E-1,9.7173475E-2,-1.8896855E-1,-8.766994E-3,-2.815935E-2,-2.0027755E-2,-1.6304196E-3,1.5006256E-1,-8.6519815E-2,1.7754799E-3,-1.1617707E-2,-2.7358215E-3,1.0391582E-3,1.750582E-4,5.929483E-3,-7.1356283E-3,1.4647965E-3,-8.681324E-5,-4.7171004E-3,-1.4092651E-3,-9.097991E-3,-2.426076E-2,-1.0403719E-2,5.1785554E-3,-8.701101E-5,1.7429073E-3,-1.2910133E-3,2.3763923E-3,-1.6615054E-4,6.516887E-3,-2.8929347E-3,-2.176457E-3,-1.3765411E-2,1.2805581E-2,6.838238E-4,-2.7215001E-3,-7.125346E-3,-1.3723659E-2,9.070617E-3,7.987814E-3,-1.8716439E-3,-1.3694947E-3,-1.7872574E-2,-1.8136404E-2,-1.1395098E-3,6.9117397E-3,3.8996318E-3,-5.201518E-4,-8.126964E-3,2.7940447E-2,5.5011143E-3,-1.0676911E-2,3.0505245E-3,8.930663E-3,-9.37844E-3,5.210417E-5,1.34669915E-2,-1.0125695E-3,-1.23952245E-2],"categories":[],"categories_nodes":[],"categories_segments":[],"categories_sizes":[],"default_left":[0,0,0,0,0,0,0,0,0,0,0,0,0,0,0,0,0,0,0,0,0,0,0,0,0,0,0,0,0,0,0,0,0,0,0,0,0,0,0,0,0,0,0,0,0,0,0,0,0,0,0,0,0,0,0,0,0,0,0,0,0,0,0,0,0,0,0,0,0,0,0,0,0,0,0,0,0,0,0,0,0,0,0,0,0,0,0,0,0,0,0,0,0,0,0,0,0,0,0,0,0,0,0,0,0,0,0,0,0,0,0],"id":1,"left_children":[1,3,5,7,9,11,13,15,17,19,21,23,25,27,29,31,33,35,37,39,41,43,45,47,49,51,53,-1,55,57,59,61,63,65,-1,67,69,71,73,75,77,79,81,83,85,87,89,91,93,95,97,99,101,103,105,-1,-1,-1,-1,107,109,-1,-1,-1,-1,-1,-1,-1,-1,-1,-1,-1,-1,-1,-1,-1,-1,-1,-1,-1,-1,-1,-1,-1,-1,-1,-1,-1,-1,-1,-1,-1,-1,-1,-1,-1,-1,-1,-1,-1,-1,-1,-1,-1,-1,-1,-1,-1,-1,-1,-1],"loss_changes":[7.9065445E1,4.0664722E1,1.0192764E1,2.658406E1,2.6318804E1,1.0885277E1,8.97364E0,1.0798331E1,9.846779E0,7.394747E0,3.6427498E1,7.6553802E0,8.898596E0,7.2869806E0,6.015444E0,8.823912E0,5.1270814E0,7.795868E0,9.039028E0,1.0888453E1,1.9211773E1,1.1211857E1,1.4717655E1,9.275617E0,6.876259E0,1.4571439E1,9.775925E0,0E0,2.3734627E0,1.884923E0,8.548792E0,6.8109336E0,7.5861816E0,6.1913395E0,0E0,1.6518513E1,1.3414759E1,6.495062E0,5.3578987E0,8.0801525E0,9.040251E0,8.32827E0,6.325672E0,7.5846214E0,1.2908245E1,8.419754E0,1.4205462E1,1.0744625E1,5.622241E0,2.9521852E0,6.009407E0,7.1311803E0,8.569748E0,7.6709747E0,7.5555377E0,0E0,0E0,0E0,0E0,1.2296958E1,5.4481983E0,0E0,0E0,0E0,0E0,0E0,0E0,0E0,0E0,0E0,0E0,0E0,0E0,0E0,0E0,0E0,0E0,0E0,0E0,0E0,0E0,0E0,0E0,0E0,0E0,0E0,0E0,0E0,0E0,0E0,0E0,0E0,0E0,0E0,0E0,0E0,0E0,0E0,0E0,0E0,0E0,0E0,0E0,0E0,0E0,0E0,0E0,0E0,0E0,0E0,0E0],"parents":[2147483647,0,0,1,1,2,2,3,3,4,4,5,5,6,6,7,7,8,8,9,9,10,10,11,11,12,12,13,13,14,14,15,15,16,16,17,17,18,18,19,19,20,20,21,21,22,22,23,23,24,24,25,25,26,26,28,28,29,29,30,30,31,31,32,32,33,33,35,35,36,36,37,37,38,38,39,39,40,40,41,41,42,42,43,43,44,44,45,45,46,46,47,47,48,48,49,49,50,50,51,51,52,52,53,53,54,54,59,59,60,60],"right_children":[2,4,6,8,10,12,14,16,18,20,22,24,26,28,30,32,34,36,38,40,42,44,46,48,50,52,54,-1,56,58,60,62,64,66,-1,68,70,72,74,76,78,80,82,84,86,88,90,92,94,96,98,100,102,104,106,-1,-1,-1,-1,108,110,-1,-1,-1,-1,-1,-1,-1,-1,-1,-1,-1,-1,-1,-1,-1,-1,-1,-1,-1,-1,-1,-1,-1,-1,-1,-1,-1,-1,-1,-1,-1,-1,-1,-1,-1,-1,-1,-1,-1,-1,-1,-1,-1,-1,-1,-1,-1,-1,-1,-1],"split_conditions":[1E0,8.3333336E-2,7.977269E1,2.8E1,6.9737E1,-1.3366998E0,-3.018642E0,2.3E1,7.107885E1,2.4989245E0,4.2E1,7.1908154E0,1.8500377E-1,3.9183296E1,1.1E1,-2.6393788E0,9.137327E0,4.807184E1,6.4E1,5.2174164E1,3.4E1,1.6E1,1.14E2,2E1,-4.0442204E0,6.275983E1,1.1218778E1,3.8884564E-3,-7.433745E-1,1.3561138E0,3.7E1,6.849131E1,6.2773883E-1,-4.7722924E-1,-1.2007622E-2,4.7271446E1,5.4615997E1,-1.1247742E0,7E1,-1.2867718E1,3.5555987E0,3.125E-1,2.958054E1,3.6310844E0,1.8957664E1,7.8896614E1,7.5448135E1,5.4738663E1,6.7209334E0,2.3E1,2.7E1,4.7271446E1,-9.702629E-1,3.2736744E1,3.5288696E1,-8.766994E-3,-2.815935E-2,-2.0027755E-2,-1.6304196E-3,2.8E1,6.952979E0,1.7754799E-3,-1.1617707E-2,-2.7358215E-3,1.0391582E-3,1.750582E-4,5.929483E-3,-7.1356283E-3,1.4647965E-3,-8.681324E-5,-4.7171004E-3,-1.4092651E-3,-9.097991E-3,-2.426076E-2,-1.0403719E-2,5.1785554E-3,-8.701101E-5,1.7429073E-3,-1.2910133E-3,2.3763923E-3,-1.6615054E-4,6.516887E-3,-2.8929347E-3,-2.176457E-3,-1.3765411E-2,1.2805581E-2,6.838238E-4,-2.7215001E-3,-7.125346E-3,-1.3723659E-2,9.070617E-3,7.987814E-3,-1.8716439E-3,-1.3694947E-3,-1.7872574E-2,-1.8136404E-2,-1.1395098E-3,6.9117397E-3,3.8996318E-3,-5.201518E-4,-8.126964E-3,2.7940447E-2,5.5011143E-3,-1.0676911E-2,3.0505245E-3,8.930663E-3,-9.37844E-3,5.210417E-5,1.34669915E-2,-1.0125695E-3,-1.23952245E-2],"split_indices":[7,7,1,0,1,2,2,0,1,2,0,1,2,3,0,2,2,3,0,3,0,0,0,0,4,1,2,0,4,4,0,1,4,2,0,1,3,4,0,2,4,7,3,4,3,1,1,3,1,0,0,1,2,3,3,0,0,0,0,0,2,0,0,0,0,0,0,0,0,0,0,0,0,0,0,0,0,0,0,0,0,0,0,0,0,0,0,0,0,0,0,0,0,0,0,0,0,0,0,0,0,0,0,0,0,0,0,0,0,0,0],"split_type":[0,0,0,0,0,0,0,0,0,0,0,0,0,0,0,0,0,0,0,0,0,0,0,0,0,0,0,0,0,0,0,0,0,0,0,0,0,0,0,0,0,0,0,0,0,0,0,0,0,0,0,0,0,0,0,0,0,0,0,0,0,0,0,0,0,0,0,0,0,0,0,0,0,0,0,0,0,0,0,0,0,0,0,0,0,0,0,0,0,0,0,0,0,0,0,0,0,0,0,0,0,0,0,0,0,0,0,0,0,0,0],"sum_hessian":[5.3440035E4,4.4513734E4,8.926303E3,9.069084E3,3.544465E4,8.244486E3,6.8181586E2,4.986093E3,4.0829917E3,3.0365068E4,5.07958E3,3.290454E3,4.9540327E3,4.72402E1,6.345756E2,4.2850337E3,7.01059E2,3.5047585E3,5.7823303E2,2.1444996E4,8.920072E3,3.023207E3,2.0563728E3,7.196823E2,2.570772E3,1.0553508E3,3.8986816E3,1.374606E1,3.3494137E1,2.5368372E1,6.092073E2,8.9863654E2,3.386397E3,6.8243774E2,1.8621223E1,1.2404525E3,2.264306E3,4.0602252E2,1.722105E2,1.2663838E4,8.781158E3,6.3825806E3,2.5374912E3,7.9367725E2,2.2295298E3,1.9155381E3,1.408347E2,4.1925757E2,3.0042474E2,5.2362633E1,2.5184092E3,9.646292E2,9.072162E1,3.778336E3,1.2034583E2,1.5621482E1,1.7872656E1,1.4996427E1,1.0371945E1,2.8054404E2,3.2866324E2,8.652686E2,3.336791E1,2.8166746E3,5.697225E2,3.4303546E2,3.394023E2,9.927702E2,2.4768237E2,1.1262073E3,1.1380988E3,2.0944502E2,1.9657751E2,3.4743942E1,1.3746655E2,2.65925E2,1.2397913E4,7.791415E3,9.8974347E2,1.5165913E3,4.8659893E3,6.3231506E1,2.4742598E3,7.401882E2,5.3489075E1,8.034931E1,2.1491804E3,5.741063E2,1.3414318E3,2.9119297E1,1.1171541E2,2.6517148E2,1.5408609E2,2.821779E2,1.8246845E1,1.0873233E1,4.14894E1,1.0905575E3,1.4278517E3,8.376579E2,1.26971306E2,1.9117334E1,7.160429E1,3.461699E1,3.743719E3,2.2992186E1,9.7353645E1,1.8994896E2,9.059507E1,2.8617245E2,4.2490765E1],"tree_param":{"num_deleted":"0","num_feature":"9","num_nodes":"111","size_leaf_vector":"1"}},{"base_weights":[-1.6228219E-3,-2.0155892E-2,9.076991E-2,-2.688469E-1,-1.278268E-2,1.9843547E-1,5.1062573E-2,-2.846261E-1,2.8224666E-2,-6.803485E-2,-6.3808396E-4,2.4068075E-1,1.06410384E-1,9.05873E-2,-1.2455027E-2,-2.1063381E-1,-4.1904613E-1,-9.571279E-2,4.0178513E-3,1.1895773E-1,-6.2896963E-3,2.2284588E-1,5.301901E-1,-4.0138322E-1,1.2686977E-1,1.21936515E-1,-2.8481118E-2,4.342984E-2,-8.815633E-2,6.932281E-2,-2.4707504E-1,-4.8081717E-1,-1.401227E-1,-4.303599E-2,-1.6345197E-1,-8.544847E-2,4.0408604E-2,3.25421E-1,7.757711E-2,-9.527011E-3,1.767886E-1,2.1327813E-1,2.6211755E-2,8.075119E-1,3.180414E-1,-2.8189335E-2,4.6949415E-3,-0E0,1.9210072E-1,-5.051668E-2,1.454617E-1,-3.903903E-1,-1.3183953E-2,-3.6138105E-1,5.702524E-2,1.9465702E-2,-9.809541E-2,-3.7626023E-3,1.10192895E-2,6.1265402E-3,-7.887525E-3,-1.5899507E-2,-1.7701356E-3,-1.059852E-2,3.0207476E-3,-7.757899E-3,-9.364518E-4,4.0721265E-5,-6.013726E-3,-1.7245639E-3,-2.1266727E-2,1.9013619E-3,-7.529165E-3,3.19219E-3,1.9481534E-2,2.9441556E-3,-6.9284346E-3,5.1390507E-5,-1.9158891E-3,-2.0999662E-4,8.580514E-3,1.8092325E-2,5.925737E-3,2.887107E-3,3.1621642E-2,8.545001E-5,1.891855E-2,1.9065103E-3,-1.2936521E-2,1.1129515E-3,8.744081E-3,-6.527763E-4,-2.2396991E-2,7.921174E-3,3.165002E-3,-2.3559155E-2,1.0153685E-2,2.521942E-3,-1.6372178E-3,1.8945631E-3,-1.6351981E-2,9.4630243E-4,7.4016633E-3,-3.3713116E-3,7.6235E-3],"categories":[],"categories_nodes":[],"categories_segments":[],"categories_sizes":[],"default_left":[0,0,0,0,0,0,0,0,0,0,0,0,0,0,0,0,0,0,0,0,0,0,0,0,0,0,0,0,0,0,0,0,0,0,0,0,0,0,0,0,0,0,0,0,0,0,0,0,0,0,0,0,0,0,0,0,0,0,0,0,0,0,0,0,0,0,0,0,0,0,0,0,0,0,0,0,0,0,0,0,0,0,0,0,0,0,0,0,0,0,0,0,0,0,0,0,0,0,0,0,0,0,0,0,0],"id":2,"left_children":[1,3,5,7,9,11,13,15,-1,17,19,21,23,25,27,29,31,33,35,37,39,41,43,45,47,49,51,53,55,57,59,61,63,65,67,69,71,73,75,77,79,81,-1,83,85,-1,-1,87,89,91,93,95,97,99,101,-1,103,-1,-1,-1,-1,-1,-1,-1,-1,-1,-1,-1,-1,-1,-1,-1,-1,-1,-1,-1,-1,-1,-1,-1,-1,-1,-1,-1,-1,-1,-1,-1,-1,-1,-1,-1,-1,-1,-1,-1,-1,-1,-1,-1,-1,-1,-1,-1,-1],"loss_changes":[9.124462E1,8.1276764E1,3.791185E1,2.457434E1,2.890717E1,9.083786E0,1.6383642E1,1.2061394E1,0E0,1.55313E1,2.3851032E1,7.833153E0,7.8671722E0,1.5050644E1,1.0580278E1,8.493126E0,7.198715E0,1.9917877E1,6.9900618E0,1.3349901E1,1.9939594E1,8.710869E0,4.327074E0,9.39226E0,6.0511875E0,1.2979942E1,4.4142284E0,7.7714186E0,7.64297E0,5.695532E0,5.341316E0,7.1282425E0,4.5467796E0,7.9048743E0,1.5050629E1,1.0323832E1,1.0211469E1,1.8156603E1,8.421701E0,2.0305387E1,1.1873974E1,8.737808E0,0E0,5.7955856E0,5.232135E0,0E0,0E0,6.9127073E0,7.2685413E0,7.2126555E0,1.30507965E1,1.0107647E1,3.2352803E0,3.8669152E0,6.5576277E0,0E0,5.277198E0,0E0,0E0,0E0,0E0,0E0,0E0,0E0,0E0,0E0,0E0,0E0,0E0,0E0,0E0,0E0,0E0,0E0,0E0,0E0,0E0,0E0,0E0,0E0,0E0,0E0,0E0,0E0,0E0,0E0,0E0,0E0,0E0,0E0,0E0,0E0,0E0,0E0,0E0,0E0,0E0,0E0,0E0,0E0,0E0,0E0,0E0,0E0,0E0],"parents":[2147483647,0,0,1,1,2,2,3,3,4,4,5,5,6,6,7,7,9,9,10,10,11,11,12,12,13,13,14,14,15,15,16,16,17,17,18,18,19,19,20,20,21,21,22,22,23,23,24,24,25,25,26,26,27,27,28,28,29,29,30,30,31,31,32,32,33,33,34,34,35,35,36,36,37,37,38,38,39,39,40,40,41,41,43,43,44,44,47,47,48,48,49,49,50,50,51,51,52,52,53,53,54,54,56,56],"right_children":[2,4,6,8,10,12,14,16,-1,18,20,22,24,26,28,30,32,34,36,38,40,42,44,46,48,50,52,54,56,58,60,62,64,66,68,70,72,74,76,78,80,82,-1,84,86,-1,-1,88,90,92,94,96,98,100,102,-1,104,-1,-1,-1,-1,-1,-1,-1,-1,-1,-1,-1,-1,-1,-1,-1,-1,-1,-1,-1,-1,-1,-1,-1,-1,-1,-1,-1,-1,-1,-1,-1,-1,-1,-1,-1,-1,-1,-1,-1,-1,-1,-1,-1,-1,-1,-1,-1,-1],"split_conditions":[1E0,7.404364E-5,1.02992446E-4,1.15E2,4.5454547E-2,1.9246942E0,3.5E1,1.8333836E0,2.8224666E-2,2.2147047E-4,9.986474E-5,1.0090054E-4,1.9885831E0,2.7525876E-4,-1.4773104E1,5.1601117E-5,1.4967651E0,2.9E1,1.4E1,-4.9569163E0,1.2979878E-3,1.15E2,-2.8101686E1,8.554688E-5,-3.875496E1,1.14564515E-4,2.7951557E-4,3.6E1,-1.2153502E1,-7.2048867E-1,-5.4303117E0,7.227293E-5,5.985908E0,-4.644866E0,9.336364E-5,4.330951E1,7.5064605E-4,-2.3770487E1,9.137327E0,1.5074281E1,-2.4811996E1,5.1601117E-5,2.6211755E-2,-4.2529377E1,1.7294952E0,-2.8189335E-2,4.6949415E-3,-4.086781E1,2.7441878E0,4.111042E1,-3.018642E0,2E1,-2.5805728E0,-4.062067E0,9.6E1,1.9465702E-2,4.5609776E1,-3.7626023E-3,1.10192895E-2,6.1265402E-3,-7.887525E-3,-1.5899507E-2,-1.7701356E-3,-1.059852E-2,3.0207476E-3,-7.757899E-3,-9.364518E-4,4.0721265E-5,-6.013726E-3,-1.7245639E-3,-2.1266727E-2,1.9013619E-3,-7.529165E-3,3.19219E-3,1.9481534E-2,2.9441556E-3,-6.9284346E-3,5.1390507E-5,-1.9158891E-3,-2.0999662E-4,8.580514E-3,1.8092325E-2,5.925737E-3,2.887107E-3,3.1621642E-2,8.545001E-5,1.891855E-2,1.9065103E-3,-1.2936521E-2,1.1129515E-3,8.744081E-3,-6.527763E-4,-2.2396991E-2,7.921174E-3,3.165002E-3,-2.3559155E-2,1.0153685E-2,2.521942E-3,-1.6372178E-3,1.8945631E-3,-1.6351981E-2,9.4630243E-4,7.4016633E-3,-3.3713116E-3,7.6235E-3],"split_indices":[7,8,8,0,7,4,0,2,0,8,8,8,4,8,5,8,4,0,0,2,8,0,5,8,5,8,8,0,2,2,4,8,2,4,8,5,8,5,2,5,5,8,0,5,2,0,0,5,4,5,2,0,2,2,0,0,5,0,0,0,0,0,0,0,0,0,0,0,0,0,0,0,0,0,0,0,0,0,0,0,0,0,0,0,0,0,0,0,0,0,0,0,0,0,0,0,0,0,0,0,0,0,0,0,0],"split_type":[0,0,0,0,0,0,0,0,0,0,0,0,0,0,0,0,0,0,0,0,0,0,0,0,0,0,0,0,0,0,0,0,0,0,0,0,0,0,0,0,0,0,0,0,0,0,0,0,0,0,0,0,0,0,0,0,0,0,0,0,0,0,0,0,0,0,0,0,0,0,0,0,0,0,0,0,0,0,0,0,0,0,0,0,0,0,0,0,0,0,0,0,0,0,0,0,0,0,0,0,0,0,0,0,0],"sum_hessian":[5.3303586E4,4.4403633E4,8.899955E3,1.2745803E3,4.312905E4,2.3924077E3,6.5075474E3,1.2600863E3,1.4494105E1,7.7625854E3,3.5366465E4,1.6337501E3,7.586577E2,4.0157249E3,2.4918223E3,8.184302E2,4.4165607E2,5.612798E3,2.1497878E3,1.5900602E3,3.3776406E4,1.5439061E3,8.984392E1,2.6994303E1,7.316634E2,3.1820754E3,8.336494E2,1.4302319E3,1.0615905E3,9.247482E1,7.259554E2,3.5892697E2,8.272909E1,3.1634329E3,2.4493647E3,6.168448E2,1.532943E3,2.6117084E2,1.3288893E3,3.3194074E4,5.823332E2,1.5249138E3,1.8992283E1,3.54864E1,5.4357517E1,1.3498325E1,1.3495977E1,2.4968272E2,4.8198065E2,3.7914853E2,2.8029268E3,3.0493355E1,8.0315607E2,4.3615498E1,1.3866165E3,1.1745601E1,1.0498448E3,5.5611446E1,3.6863373E1,2.2743202E1,7.0321216E2,3.1993692E2,3.8990063E1,4.449007E1,3.8239014E1,1.6008846E2,3.0033442E3,4.4700076E2,2.0023641E3,5.932236E2,2.36212E1,1.4239696E3,1.089734E2,1.5833151E2,1.02839325E2,1.2486578E3,8.023145E1,2.7498436E4,5.6956377E3,2.160689E2,3.6626428E2,5.510544E1,1.4698085E3,1.0371991E1,2.5114408E1,2.886687E1,2.5490644E1,2.1931407E2,3.0368643E1,1.9132175E2,2.9065894E2,3.6677597E2,1.2372579E1,7.005298E2,2.102397E3,2.012176E1,1.0371595E1,2.3555666E2,5.6759937E2,1.2746377E1,3.086912E1,1.2267909E3,1.5982545E2,1.01160724E3,3.823759E1],"tree_param":{"num_deleted":"0","num_feature":"9","num_nodes":"105","size_leaf_vector":"1"}},{"base_weights":[3.2496452E-3,-1.1421234E-2,7.649368E-2,-6.0805302E-2,2.2478575E-4,8.746943E-2,1.0979317E-2,-3.0271623E-2,-1.0133869E-1,1.2099572E-2,-5.3104497E-2,7.891233E-2,1.9320609E-1,6.9148876E-2,-2.896546E-1,-4.973036E-2,5.48999E-2,-4.9209207E-2,-1.6736567E-1,1.1315783E-2,4.186872E-1,-1.3211578E-2,-1.4978865E-1,1.0393003E-1,3.8877703E-2,2.2145523E-1,-1.2844051E-1,-7.8003414E-2,9.8292746E-2,-3.2700357E-1,9.005033E-3,2.3729627E-1,-5.692479E-2,2.4765134E-1,1.996507E-2,-7.4087456E-2,1.5339445E-1,4.1587394E-2,-1.9453232E-1,1.773953E-2,-2.8244358E-2,-1.1683565E-3,6.5225905E-1,-3.802013E-1,-6.077223E-3,4.7819413E-2,-1.7191713E-1,8.955022E-2,2.5905526E-1,-1.302434E-1,5.7252016E-2,-7.397951E-2,2.431186E-1,-1.2801882E-2,9.631368E-2,-2.0575772E-1,1.1878849E-1,-1.4944218E-2,1.927057E-1,-3.7481317E-1,3.097195E-3,1.744921E-2,-3.572094E-3,-2.2388778E-3,9.646922E-4,4.580545E-3,1.307873E-2,3.138694E-4,1.6367972E-2,-1.8554425E-3,-1.4835203E-2,5.987278E-3,-1.7650567E-2,6.0794726E-3,-2.0359976E-3,1.7592707E-3,-6.3098627E-3,-5.184809E-3,5.630657E-4,-9.64849E-3,-4.4605084E-4,3.358044E-2,7.1618725E-3,-1.6997646E-3,-1.691324E-2,-1.7923297E-3,7.812429E-4,8.376524E-3,-4.4071595E-3,-3.527608E-3,-8.284681E-3,4.2259586E-3,1.4834964E-3,9.796661E-3,6.854396E-4,-8.748649E-3,1.12102E-2,-2.5375648E-3,2.125214E-3,-8.085721E-3,5.695196E-3,1.8541982E-2,6.5453723E-3,-6.1184005E-3,1.0445005E-2,-8.6111715E-3,4.633052E-3,8.979151E-3,-2.7824868E-3,1.3000815E-3,-6.967983E-3,2.8308595E-3,1.0774704E-2,-5.7735303E-3,-1.536059E-2],"categories":[],"categories_nodes":[],"categories_segments":[],"categories_sizes":[],"default_left":[0,0,0,0,0,0,0,0,0,0,0,0,0,0,0,0,0,0,0,0,0,0,0,0,0,0,0,0,0,0,0,0,0,0,0,0,0,0,0,0,0,0,0,0,0,0,0,0,0,0,0,0,0,0,0,0,0,0,0,0,0,0,0,0,0,0,0,0,0,0,0,0,0,0,0,0,0,0,0,0,0,0,0,0,0,0,0,0,0,0,0,0,0,0,0,0,0,0,0,0,0,0,0,0,0,0,0,0,0,0,0,0,0,0,0],"id":3,"left_children":[1,3,5,7,9,11,13,15,17,19,21,23,25,27,29,31,33,35,37,39,41,43,45,47,49,51,53,55,57,59,-1,61,63,65,67,69,71,73,75,77,79,-1,81,83,85,87,89,91,93,95,97,99,101,-1,103,105,107,109,111,113,-1,-1,-1,-1,-1,-1,-1,-1,-1,-1,-1,-1,-1,-1,-1,-1,-1,-1,-1,-1,-1,-1,-1,-1,-1,-1,-1,-1,-1,-1,-1,-1,-1,-1,-1,-1,-1,-1,-1,-1,-1,-1,-1,-1,-1,-1,-1,-1,-1,-1,-1,-1,-1,-1,-1],"loss_changes":[5.7403904E1,2.5609646E1,6.3595886E0,1.0442101E1,2.2767635E1,6.736355E0,2.2455843E1,8.049555E0,1.2411091E1,9.157074E0,2.5161621E1,6.9974136E0,5.241106E0,4.6669483E0,4.787861E0,8.110236E0,5.9107723E0,1.0277092E1,9.185261E0,7.4633217E0,6.2746744E0,1.1949952E1,8.422173E0,9.459419E0,8.456331E0,3.4610863E0,3.2970023E0,4.5471907E0,9.792376E0,4.269516E0,0E0,1.2085452E1,6.121047E0,1.9971876E0,3.5344014E0,9.03856E0,7.6384068E0,3.335478E0,5.7793045E0,4.890723E0,1.589126E1,0E0,6.027418E0,4.79951E0,7.87071E0,8.77445E0,9.471504E0,8.075453E0,5.6161613E0,2.1751953E1,4.7558784E0,1.9794968E0,3.8786125E0,0E0,2.2269716E0,3.3670998E0,2.8118842E0,5.3312726E0,7.844532E0,3.9283752E0,0E0,0E0,0E0,0E0,0E0,0E0,0E0,0E0,0E0,0E0,0E0,0E0,0E0,0E0,0E0,0E0,0E0,0E0,0E0,0E0,0E0,0E0,0E0,0E0,0E0,0E0,0E0,0E0,0E0,0E0,0E0,0E0,0E0,0E0,0E0,0E0,0E0,0E0,0E0,0E0,0E0,0E0,0E0,0E0,0E0,0E0,0E0,0E0,0E0,0E0,0E0,0E0,0E0,0E0,0E0],"parents":[2147483647,0,0,1,1,2,2,3,3,4,4,5,5,6,6,7,7,8,8,9,9,10,10,11,11,12,12,13,13,14,14,15,15,16,16,17,17,18,18,19,19,20,20,21,21,22,22,23,23,24,24,25,25,26,26,27,27,28,28,29,29,31,31,32,32,33,33,34,34,35,35,36,36,37,37,38,38,39,39,40,40,42,42,43,43,44,44,45,45,46,46,47,47,48,48,49,49,50,50,51,51,52,52,54,54,55,55,56,56,57,57,58,58,59,59],"right_children":[2,4,6,8,10,12,14,16,18,20,22,24,26,28,30,32,34,36,38,40,42,44,46,48,50,52,54,56,58,60,-1,62,64,66,68,70,72,74,76,78,80,-1,82,84,86,88,90,92,94,96,98,100,102,-1,104,106,108,110,112,114,-1,-1,-1,-1,-1,-1,-1,-1,-1,-1,-1,-1,-1,-1,-1,-1,-1,-1,-1,-1,-1,-1,-1,-1,-1,-1,-1,-1,-1,-1,-1,-1,-1,-1,-1,-1,-1,-1,-1,-1,-1,-1,-1,-1,-1,-1,-1,-1,-1,-1,-1,-1,-1,-1,-1],"split_conditions":[1E0,4.5454547E-2,1.0320155E1,3E1,1.3224558E1,8E1,6E1,2.3E1,-4.283415E-1,1.75E2,4.1E1,3E1,5.776876E0,3.348948E1,5.0754124E1,-9.135905E0,2.4E1,9.5E1,-3.57006E1,6.3042835E1,-3.9068677E0,4E0,1.5384616E-1,7.086167E0,4.659001E1,4.832037E1,7.380881E0,2.5E1,2.0899265E1,1.16E2,9.005033E-3,4.479454E1,1.4460471E1,5.3632446E1,1.1218778E1,9E1,1.8867718E1,4.6E1,2.834626E1,-1.5739417E1,-3.946572E1,-1.1683565E-3,-3.8140076E-1,3E0,1.6E1,2.9278597E1,7.1E1,-9.702629E-1,1.0749011E1,2.4662E0,-4.67306E1,-1.5675023E1,-9.135905E0,-1.2801882E-2,9.2E1,7.212405E1,3.7E1,4.1E1,1.6752702E0,7.5E1,3.097195E-3,1.744921E-2,-3.572094E-3,-2.2388778E-3,9.646922E-4,4.580545E-3,1.307873E-2,3.138694E-4,1.6367972E-2,-1.8554425E-3,-1.4835203E-2,5.987278E-3,-1.7650567E-2,6.0794726E-3,-2.0359976E-3,1.7592707E-3,-6.3098627E-3,-5.184809E-3,5.630657E-4,-9.64849E-3,-4.4605084E-4,3.358044E-2,7.1618725E-3,-1.6997646E-3,-1.691324E-2,-1.7923297E-3,7.812429E-4,8.376524E-3,-4.4071595E-3,-3.527608E-3,-8.284681E-3,4.2259586E-3,1.4834964E-3,9.796661E-3,6.854396E-4,-8.748649E-3,1.12102E-2,-2.5375648E-3,2.125214E-3,-8.085721E-3,5.695196E-3,1.8541982E-2,6.5453723E-3,-6.1184005E-3,1.0445005E-2,-8.6111715E-3,4.633052E-3,8.979151E-3,-2.7824868E-3,1.3000815E-3,-6.967983E-3,2.8308595E-3,1.0774704E-2,-5.7735303E-3,-1.536059E-2],"split_indices":[7,7,5,0,5,0,0,0,2,0,0,0,2,3,5,2,0,0,5,3,2,0,7,2,3,3,2,0,5,0,0,3,5,3,2,0,5,0,3,2,5,0,2,0,0,5,0,2,2,5,5,5,2,0,0,5,0,0,2,0,0,0,0,0,0,0,0,0,0,0,0,0,0,0,0,0,0,0,0,0,0,0,0,0,0,0,0,0,0,0,0,0,0,0,0,0,0,0,0,0,0,0,0,0,0,0,0,0,0,0,0,0,0,0,0],"split_type":[0,0,0,0,0,0,0,0,0,0,0,0,0,0,0,0,0,0,0,0,0,0,0,0,0,0,0,0,0,0,0,0,0,0,0,0,0,0,0,0,0,0,0,0,0,0,0,0,0,0,0,0,0,0,0,0,0,0,0,0,0,0,0,0,0,0,0,0,0,0,0,0,0,0,0,0,0,0,0,0,0,0,0,0,0,0,0,0,0,0,0,0,0,0,0,0,0,0,0,0,0,0,0,0,0,0,0,0,0,0,0,0,0,0,0],"sum_hessian":[5.338722E4,4.44739E4,8.91332E3,8.493279E3,3.598062E4,7.627216E3,1.2861044E3,4.8532046E3,3.640075E3,2.9436861E4,6.5437593E3,7.063777E3,5.634388E2,1.0802838E3,2.058206E2,3.95608E3,8.971243E2,2.0402913E3,1.5997836E3,2.9383502E4,5.3357937E1,4.637657E3,1.9061022E3,4.337553E3,2.7262239E3,5.1995074E2,4.348804E1,1.7519345E2,9.0509033E2,1.9519904E2,1.0621572E1,9.347235E1,3.862608E3,1.3358492E2,7.635394E2,1.8204855E3,2.1980582E2,1.8182265E2,1.4179609E3,2.5290578E4,4.0929246E3,1.7870502E1,3.5487434E1,8.510695E1,4.5525503E3,1.894439E2,1.7166583E3,3.9754175E3,3.6213577E2,2.6330646E2,2.4629175E3,3.3614998E1,4.8633572E2,1.8870663E1,2.461738E1,1.0771569E2,6.747775E1,4.098783E2,4.9521204E2,1.7695518E2,1.8243845E1,4.7608597E1,4.586375E1,3.2271619E3,6.354459E2,9.29735E1,4.061142E1,7.529187E2,1.0620718E1,1.7723712E3,4.8114292E1,2.0893349E2,1.0872335E1,7.472699E1,1.0709565E2,8.1098076E1,1.3368628E3,1.3146758E2,2.5159111E4,1.7483559E2,3.918089E3,1.4493764E1,2.0993671E1,3.27417E1,5.2365246E1,1.709684E3,2.8428662E3,8.734672E1,1.0209718E2,1.1344343E3,5.822239E2,1.7361847E3,2.2392327E3,2.7940845E2,8.272732E1,2.008269E2,6.247956E1,2.1119545E2,2.251722E3,2.0369207E1,1.32457905E1,2.6114197E1,4.6022153E2,1.0497438E1,1.4119941E1,8.934776E1,1.836793E1,3.7236084E1,3.024167E1,3.2265167E2,8.722662E1,3.1515045E2,1.8006158E2,7.960331E1,9.735188E1],"tree_param":{"num_deleted":"0","num_feature":"9","num_nodes":"115","size_leaf_vector":"1"}},{"base_weights":[-3.1680875E-3,6.898138E-3,-7.1274884E-2,-8.667293E-2,1.1723609E-2,-7.7411376E-2,9.038383E-1,-1.6208844E-1,8.068292E-2,1.07240126E-1,6.1248443E-3,-4.0836636E-2,-2.1822087E-1,3.1907752E-2,1.3074015E-2,-1.7538416E-1,2.7149748E-2,4.61792E-1,1.6075743E-2,-1.6807486E-1,1.3099533E-1,1.5720122E-1,3.2891294E-3,-6.9150454E-3,-1.6862994E-1,-2.6998886E-1,5.5816945E-2,1.19295985E-1,-2.0912069E-1,1.6707577E-2,6.497001E-1,-4.045744E-2,4.4908208E-1,-2.7250588E-1,1.8283892E-1,6.773817E-1,1.2328301E-1,1.8491322E-1,-1.9819392E-1,1.9666761E-2,-2.6002884E-2,-1.07957795E-1,2.556219E-2,-5.497552E-2,-2.8460115E-1,-2.2677578E-1,-4.9177027E-1,-3.14683E-1,3.427657E-1,6.4213593E-3,-1.496141E-2,-3.9589E-3,-9.351039E-3,2.1726286E-2,-1.0430922E-2,2.3148507E-2,1.6356603E-3,1.0393532E-3,-8.363611E-3,1.6653085E-2,1.7343821E-3,-5.4349154E-3,-1.979099E-2,-1.08848205E-2,1.192191E-2,5.3467327E-3,2.8937176E-2,1.7751569E-3,5.694009E-3,5.9397076E-3,-1.632929E-2,-1.9015847E-2,3.5882303E-3,2.5564496E-4,1.639234E-3,-3.0598086E-3,-1.6148653E-4,-8.301817E-3,-9.912489E-4,2.6197294E-3,-2.0162927E-3,-6.5000043E-3,4.8459074E-3,-1.0789715E-2,-0E0,-5.691203E-3,-1.7102856E-2,-1.880927E-2,-5.5229934E-3,3.9033324E-3,-1.6580697E-2,1.3616443E-2,-9.656936E-3],"categories":[],"categories_nodes":[],"categories_segments":[],"categories_sizes":[],"default_left":[0,0,0,0,0,0,0,0,0,0,0,0,0,0,0,0,0,0,0,0,0,0,0,0,0,0,0,0,0,0,0,0,0,0,0,0,0,0,0,0,0,0,0,0,0,0,0,0,0,0,0,0,0,0,0,0,0,0,0,0,0,0,0,0,0,0,0,0,0,0,0,0,0,0,0,0,0,0,0,0,0,0,0,0,0,0,0,0,0,0,0,0,0],"id":4,"left_children":[1,3,5,7,9,11,13,15,17,19,21,23,25,-1,-1,27,-1,29,31,33,35,37,39,41,43,45,47,49,51,53,55,57,59,61,63,65,67,69,71,73,75,77,79,81,83,85,87,89,91,-1,-1,-1,-1,-1,-1,-1,-1,-1,-1,-1,-1,-1,-1,-1,-1,-1,-1,-1,-1,-1,-1,-1,-1,-1,-1,-1,-1,-1,-1,-1,-1,-1,-1,-1,-1,-1,-1,-1,-1,-1,-1,-1,-1],"loss_changes":[3.6465553E1,2.0867256E1,4.0712437E1,2.865955E1,2.3488213E1,3.491943E1,1.4997673E0,2.2148018E1,1.7056318E1,1.5936996E1,1.7740252E1,2.3363407E1,2.000756E1,0E0,0E0,1.54773445E1,0E0,8.067982E0,1.5033758E1,7.1970263E0,8.8820915E0,7.5826473E0,1.958929E1,1.4093974E1,1.4715477E1,1.0726486E1,2.3903553E1,9.3638735E0,1.0702366E1,9.132595E0,4.580042E0,9.7235E0,2.573554E0,4.6531363E0,5.4846897E0,3.3659534E0,9.297108E0,6.8156796E0,8.004748E0,1.0182245E1,2.2877083E1,1.3043671E1,1.8570765E1,2.0269232E1,1.2021519E1,1.2043285E1,7.218437E0,1.06738205E1,9.752913E0,0E0,0E0,0E0,0E0,0E0,0E0,0E0,0E0,0E0,0E0,0E0,0E0,0E0,0E0,0E0,0E0,0E0,0E0,0E0,0E0,0E0,0E0,0E0,0E0,0E0,0E0,0E0,0E0,0E0,0E0,0E0,0E0,0E0,0E0,0E0,0E0,0E0,0E0,0E0,0E0,0E0,0E0,0E0,0E0],"parents":[2147483647,0,0,1,1,2,2,3,3,4,4,5,5,6,6,7,7,8,8,9,9,10,10,11,11,12,12,15,15,17,17,18,18,19,19,20,20,21,21,22,22,23,23,24,24,25,25,26,26,27,27,28,28,29,29,30,30,31,31,32,32,33,33,34,34,35,35,36,36,37,37,38,38,39,39,40,40,41,41,42,42,43,43,44,44,45,45,46,46,47,47,48,48],"right_children":[2,4,6,8,10,12,14,16,18,20,22,24,26,-1,-1,28,-1,30,32,34,36,38,40,42,44,46,48,50,52,54,56,58,60,62,64,66,68,70,72,74,76,78,80,82,84,86,88,90,92,-1,-1,-1,-1,-1,-1,-1,-1,-1,-1,-1,-1,-1,-1,-1,-1,-1,-1,-1,-1,-1,-1,-1,-1,-1,-1,-1,-1,-1,-1,-1,-1,-1,-1,-1,-1,-1,-1,-1,-1,-1,-1,-1,-1],"split_conditions":[7.107885E1,7.713397E-5,1.9613772E-3,1E0,9.336364E-5,6.3E1,3.8E1,1.16E2,5.6224133E-5,3.7642822E1,-1.2153502E1,4.61011E-4,1.1E2,3.1907752E-2,1.3074015E-2,5.1601117E-5,2.7149748E-2,5.2055885E1,5.7312283E1,8.2406645E0,3.824588E1,7.1619375E-4,3.5E1,1.8E1,3.443654E1,5.372132E-4,2.3186849E-4,5E1,7.6427776E-1,4.506461E1,4.2154057E1,5.9997795E1,6.727245E1,3.6966354E1,3.1072037E1,1.1E1,5.2055885E1,6.406089E1,3.7E1,3.9457605E-4,4.683687E1,1.3648441E0,3.9E1,7.3262816E-4,7.462098E1,1E2,8.6E1,1.2802753E-4,1.67E2,6.4213593E-3,-1.496141E-2,-3.9589E-3,-9.351039E-3,2.1726286E-2,-1.0430922E-2,2.3148507E-2,1.6356603E-3,1.0393532E-3,-8.363611E-3,1.6653085E-2,1.7343821E-3,-5.4349154E-3,-1.979099E-2,-1.08848205E-2,1.192191E-2,5.3467327E-3,2.8937176E-2,1.7751569E-3,5.694009E-3,5.9397076E-3,-1.632929E-2,-1.9015847E-2,3.5882303E-3,2.5564496E-4,1.639234E-3,-3.0598086E-3,-1.6148653E-4,-8.301817E-3,-9.912489E-4,2.6197294E-3,-2.0162927E-3,-6.5000043E-3,4.8459074E-3,-1.0789715E-2,-0E0,-5.691203E-3,-1.7102856E-2,-1.880927E-2,-5.5229934E-3,3.9033324E-3,-1.6580697E-2,1.3616443E-2,-9.656936E-3],"split_indices":[1,8,8,6,8,0,0,0,8,3,2,8,0,0,0,8,0,3,1,2,3,8,0,0,3,8,8,0,2,3,1,3,1,3,3,0,3,3,0,8,3,2,0,8,3,0,0,8,0,0,0,0,0,0,0,0,0,0,0,0,0,0,0,0,0,0,0,0,0,0,0,0,0,0,0,0,0,0,0,0,0,0,0,0,0,0,0,0,0,0,0,0,0],"split_type":[0,0,0,0,0,0,0,0,0,0,0,0,0,0,0,0,0,0,0,0,0,0,0,0,0,0,0,0,0,0,0,0,0,0,0,0,0,0,0,0,0,0,0,0,0,0,0,0,0,0,0,0,0,0,0,0,0,0,0,0,0,0,0,0,0,0,0,0,0,0,0,0,0,0,0,0,0,0,0,0,0,0,0,0,0,0,0,0,0,0,0,0,0],"sum_hessian":[5.3139094E4,4.6291617E4,6.8474736E3,2.2634446E3,4.4028176E4,6.8069907E3,4.0483143E1,1.5624216E3,7.0102295E2,2.4308894E3,4.1597285E4,5.4083286E3,1.3986621E3,2.7487694E1,1.299545E1,1.5453071E3,1.7114529E1,9.8710205E1,6.0231274E2,1.904491E2,2.2404402E3,7.611444E2,4.083614E4,4.278626E3,1.1297023E3,1.1779852E3,2.2067693E2,1.5669788E2,1.3886093E3,3.0739191E1,6.7971016E1,5.333386E2,6.897412E1,1.4821303E2,4.2236073E1,2.786447E1,2.2125757E3,7.082822E2,5.286218E1,2.6203227E4,1.4632914E4,1.0433418E3,3.2352844E3,5.742165E2,5.554858E2,9.911615E2,1.8682368E2,9.547133E1,1.252056E2,1.3770255E2,1.8995327E1,7.979032E2,5.9070605E2,1.0245204E1,2.0493988E1,5.522558E1,1.2745438E1,4.0524802E2,1.2809062E2,5.260469E1,1.6369432E1,1.2334265E2,2.487037E1,1.0872518E1,3.1363556E1,1.1996279E1,1.5868191E1,1.1324178E3,1.080158E3,6.9790936E2,1.0372848E1,2.2121096E1,3.0741085E1,1.9883688E4,6.3195386E3,3.116299E3,1.1516615E4,3.1704602E2,7.2629584E2,1.9455549E3,1.2897295E3,3.3004184E2,2.4417462E2,4.400193E2,1.1546647E2,8.9868933E2,9.247216E1,1.272174E2,5.960628E1,3.2862617E1,6.260871E1,1.0846018E2,1.6745417E1],"tree_param":{"num_deleted":"0","num_feature":"9","num_nodes":"93","size_leaf_vector":"1"}},{"base_weights":[3.2056813E-4,-1.7016212E-2,7.628732E-2,-2.0803748E-1,-9.936565E-3,1.2490872E-1,2.7160201E-2,-1.05246365E-1,-3.3903298E-1,-2.0161935E-3,-9.782124E-2,5.3088045E-1,1.185793E-1,4.8461404E-2,-1.0137327E-1,-1.22815445E-1,2.35417E-2,-3.6917534E-1,9.019376E-2,-1.5398131E-2,2.8392203E-2,-1.0842888E-1,7.302194E-1,6.875113E-1,-0E0,2.6517498E-1,1.059366E-1,7.0553504E-2,-4.2639926E-2,-2.9036425E-2,-2.4411939E-1,-1.4833508E-1,3.2851812E-1,-2.0997113E-1,-4.3567094E-1,1.5947914E-2,-2.2139096E-1,6.15385E-2,-2.5569983E-2,6.347758E-2,-2.5749847E-2,2.8049883E-1,-1.262065E-1,-8.404671E-3,3.2095384E-2,8.425047E-1,4.0134919E-4,6.071606E-1,1.8252487E-1,-1.9738318E-2,1.186951E-1,1.4230359E-1,2.4780659E-2,-2.2876346E-1,1.0623401E-2,-5.40994E-2,3.806047E-1,-3.5223323E-1,1.0567152E-1,-5.0253114E-3,1.0562071E-2,1.3942921E-3,1.4807933E-2,-2.4662832E-2,-4.6995836E-3,-3.8731915E-3,-1.39812855E-2,6.285495E-3,-1.6463827E-2,-1.8384827E-2,1.9486105E-3,1.8802043E-3,-9.107547E-4,4.1750227E-3,1.4076509E-3,-2.800979E-3,9.1465574E-4,1.2149483E-2,-1.124063E-2,-1.7784653E-3,-6.4029163E-3,1.6578592E-2,3.2197867E-2,9.400437E-3,2.7634567E-2,-4.8310864E-3,7.5447634E-3,2.428018E-3,-5.8077425E-3,4.7630337E-3,2.1496161E-3,5.3648595E-3,-2.8886116E-4,-2.0634802E-3,2.3142875E-3,-1.13762375E-2,3.2975494E-3,-7.099677E-4,8.561999E-3,1.1044613E-2,-2.3384898E-3,1.8673489E-2,2.273565E-3,-1.4952322E-2,-2.9948407E-3,-8.842593E-3,1.8527139E-2],"categories":[],"categories_nodes":[],"categories_segments":[],"categories_sizes":[],"default_left":[0,0,0,0,0,0,0,0,0,0,0,0,0,0,0,0,0,0,0,0,0,0,0,0,0,0,0,0,0,0,0,0,0,0,0,0,0,0,0,0,0,0,0,0,0,0,0,0,0,0,0,0,0,0,0,0,0,0,0,0,0,0,0,0,0,0,0,0,0,0,0,0,0,0,0,0,0,0,0,0,0,0,0,0,0,0,0,0,0,0,0,0,0,0,0,0,0,0,0,0,0,0,0,0,0,0,0],"id":5,"left_children":[1,3,5,7,9,11,13,15,17,19,21,23,25,27,29,31,-1,33,35,37,39,41,43,45,-1,47,49,51,53,55,57,59,61,63,65,-1,67,69,71,73,75,77,79,-1,-1,81,-1,83,85,87,89,91,93,95,97,99,101,103,105,-1,-1,-1,-1,-1,-1,-1,-1,-1,-1,-1,-1,-1,-1,-1,-1,-1,-1,-1,-1,-1,-1,-1,-1,-1,-1,-1,-1,-1,-1,-1,-1,-1,-1,-1,-1,-1,-1,-1,-1,-1,-1,-1,-1,-1,-1,-1,-1],"loss_changes":[7.02292E1,5.856928E1,2.3587082E1,2.0552177E1,2.9078081E1,1.2332108E1,1.3499756E1,1.35038805E1,8.973297E0,1.5617839E1,3.0188068E1,6.4371815E0,8.843613E0,8.552677E0,7.0684285E0,9.888227E0,0E0,6.2128906E0,6.57724E0,2.0859865E1,2.2289534E1,2.3591145E1,1.587105E1,5.618889E0,0E0,1.0257952E1,7.300606E0,1.1132595E1,8.285454E0,4.688958E0,8.991765E0,7.840046E0,1.8017931E0,5.5539436E0,3.7124023E0,0E0,4.225317E0,6.9674034E0,9.945702E0,8.814873E0,1.7548716E1,1.2436315E1,1.8905224E1,0E0,0E0,1.1176567E0,0E0,5.5258255E0,7.5635347E0,7.344461E0,7.603512E0,7.4481506E0,1.02688875E1,9.673744E0,6.180922E0,4.3886185E0,1.481776E0,6.212755E0,1.1871095E1,0E0,0E0,0E0,0E0,0E0,0E0,0E0,0E0,0E0,0E0,0E0,0E0,0E0,0E0,0E0,0E0,0E0,0E0,0E0,0E0,0E0,0E0,0E0,0E0,0E0,0E0,0E0,0E0,0E0,0E0,0E0,0E0,0E0,0E0,0E0,0E0,0E0,0E0,0E0,0E0,0E0,0E0,0E0,0E0,0E0,0E0,0E0,0E0],"parents":[2147483647,0,0,1,1,2,2,3,3,4,4,5,5,6,6,7,7,8,8,9,9,10,10,11,11,12,12,13,13,14,14,15,15,17,17,18,18,19,19,20,20,21,21,22,22,23,23,25,25,26,26,27,27,28,28,29,29,30,30,31,31,32,32,33,33,34,34,36,36,37,37,38,38,39,39,40,40,41,41,42,42,45,45,47,47,48,48,49,49,50,50,51,51,52,52,53,53,54,54,55,55,56,56,57,57,58,58],"right_children":[2,4,6,8,10,12,14,16,18,20,22,24,26,28,30,32,-1,34,36,38,40,42,44,46,-1,48,50,52,54,56,58,60,62,64,66,-1,68,70,72,74,76,78,80,-1,-1,82,-1,84,86,88,90,92,94,96,98,100,102,104,106,-1,-1,-1,-1,-1,-1,-1,-1,-1,-1,-1,-1,-1,-1,-1,-1,-1,-1,-1,-1,-1,-1,-1,-1,-1,-1,-1,-1,-1,-1,-1,-1,-1,-1,-1,-1,-1,-1,-1,-1,-1,-1,-1,-1,-1,-1,-1,-1],"split_conditions":[9.0909094E-1,7.713397E-5,1.5583045E-4,7.6427776E-1,8.167338E1,5.1601117E-5,6.849131E1,1.15E2,6.7593956E1,3.480284E-4,1.5110476E-3,4.4E1,-7.2598042E0,4.7961762E-4,5.1E1,4.2954203E-1,2.35417E-2,8E0,6.647932E-5,-6.5690174E0,3.4E1,9.881859E-5,2.5889235E1,5.2042894E0,-0E0,4.7948227E1,5.787014E0,-1.7723349E0,-4.611306E0,4.8E1,9.2E1,6.4478035E1,1.7E1,3.1985477E1,5.1601117E-5,1.5947914E-2,6.939183E1,3.3832516E1,9.0160516E-5,3.7429924E1,5.2174164E1,7.5446687E0,4.1E1,-8.404671E-3,3.2095384E-2,2.1E1,4.0134919E-4,1.14564515E-4,1.5E1,1.6E1,5.6257526E1,5.5E1,5.073662E1,3.417619E1,1.103214E-3,9.166667E-1,2.5619785E-4,9.422528E1,4.2954203E-1,-5.0253114E-3,1.0562071E-2,1.3942921E-3,1.4807933E-2,-2.4662832E-2,-4.6995836E-3,-3.8731915E-3,-1.39812855E-2,6.285495E-3,-1.6463827E-2,-1.8384827E-2,1.9486105E-3,1.8802043E-3,-9.107547E-4,4.1750227E-3,1.4076509E-3,-2.800979E-3,9.1465574E-4,1.2149483E-2,-1.124063E-2,-1.7784653E-3,-6.4029163E-3,1.6578592E-2,3.2197867E-2,9.400437E-3,2.7634567E-2,-4.8310864E-3,7.5447634E-3,2.428018E-3,-5.8077425E-3,4.7630337E-3,2.1496161E-3,5.3648595E-3,-2.8886116E-4,-2.0634802E-3,2.3142875E-3,-1.13762375E-2,3.2975494E-3,-7.099677E-4,8.561999E-3,1.1044613E-2,-2.3384898E-3,1.8673489E-2,2.273565E-3,-1.4952322E-2,-2.9948407E-3,-8.842593E-3,1.8527139E-2],"split_indices":[7,8,8,2,1,8,1,0,3,8,8,0,2,8,0,2,0,0,8,2,0,8,3,2,0,3,1,2,2,0,0,3,0,3,8,0,3,3,8,3,3,2,0,0,0,0,0,8,0,0,3,0,3,1,8,7,8,1,2,0,0,0,0,0,0,0,0,0,0,0,0,0,0,0,0,0,0,0,0,0,0,0,0,0,0,0,0,0,0,0,0,0,0,0,0,0,0,0,0,0,0,0,0,0,0,0,0],"split_type":[0,0,0,0,0,0,0,0,0,0,0,0,0,0,0,0,0,0,0,0,0,0,0,0,0,0,0,0,0,0,0,0,0,0,0,0,0,0,0,0,0,0,0,0,0,0,0,0,0,0,0,0,0,0,0,0,0,0,0,0,0,0,0,0,0,0,0,0,0,0,0,0,0,0,0,0,0,0,0,0,0,0,0,0,0,0,0,0,0,0,0,0,0,0,0,0,0,0,0,0,0,0,0,0,0,0,0],"sum_hessian":[5.3297902E4,4.3390496E4,9.907407E3,1.5461183E3,4.1844375E4,4.9726665E3,4.93474E3,8.704819E2,6.7563635E2,3.8392125E4,3.4522522E3,7.2580475E1,4.900086E3,4.2376E3,6.9714014E2,8.5587177E2,1.4610125E1,6.326531E2,4.298328E1,2.6671936E4,1.1720188E4,3.4108987E3,4.135346E1,5.608786E1,1.649261E1,3.8272946E2,4.5173564E3,3.4153228E3,8.222774E2,4.6659955E2,2.3054057E2,8.1238763E2,4.348413E1,1.910572E2,4.415959E2,1.7866032E1,2.5117249E1,3.1076223E3,2.3564312E4,7.117053E3,4.6031353E3,1.4657347E2,3.2643254E3,1.0121231E1,3.1232227E1,4.459385E1,1.1494015E1,7.084568E1,3.118838E2,4.1262238E2,4.1047344E3,1.3243031E3,2.0910195E3,1.835783E2,6.386991E2,4.424836E2,2.4115921E1,1.7718994E2,5.335064E1,7.8464984E2,2.7737797E1,1.8119146E1,2.5364985E1,1.2246458E1,1.7881076E2,4.2236645E1,3.9935922E2,1.0496018E1,1.4621231E1,1.3122653E1,3.0944998E3,1.2062749E3,2.2358037E4,1.269261E3,5.847792E3,2.0935742E3,2.509561E3,1.2445434E2,2.2119137E1,1.8522461E3,1.4120792E3,2.373437E1,2.0859478E1,3.948578E1,3.1359905E1,5.048289E1,2.6140088E2,2.6016364E2,1.5245872E2,2.2082383E3,1.896496E3,1.0700066E3,2.5429651E2,7.466659E2,1.3443536E3,1.2797017E2,5.5608128E1,5.6784644E2,7.085269E1,2.0992306E1,4.214913E2,1.13703E1,1.274562E1,1.0971788E2,6.747205E1,2.9862703E1,2.3487934E1],"tree_param":{"num_deleted":"0","num_feature":"9","num_nodes":"107","size_leaf_vector":"1"}},{"base_weights":[-2.021121E-3,1.1728511E-2,-3.3703182E-2,-1.1258045E-1,1.7969381E-2,-1.46627035E-2,-1.20532826E-1,-1.8940517E-1,5.3186756E-2,9.676223E-2,9.388608E-3,8.550963E-3,-8.323683E-2,-8.670089E-2,-2.6404846E-1,-9.836009E-2,-3.6799452E-1,6.7486995E-1,-1.8364815E-3,1.1393759E-1,-1.545252E-1,-9.7124115E-2,1.3346426E-2,-2.2896614E-3,1.5468039E-1,1.16923E-1,-1.01937965E-1,-1.7444988E-1,7.490652E-2,-3.3297345E-1,3.283499E-1,2.2339356E-1,-1.3760054E-1,-4.936649E-1,-5.543662E-2,8.483887E-1,9.958537E-3,1.582752E-1,-5.6839064E-2,9.9729085E-3,1.6771805E-1,-2.6223132E-1,1.8944718E-1,2.2587603E-2,-1.0735347E-1,9.6270055E-2,5.628009E-3,-3.2822944E-2,4.0365078E-2,2.1404254E-1,-3.0125973E-1,6.314234E-2,2.599676E-2,-2.7816173E-1,-7.692889E-2,1.105983E-1,-2.1467029E-1,1.4602453E-1,-1.2403765E-1,-2.3377001E-1,-5.4054755E-1,2.6739486E-2,2.8615844E-2,-1.8204323E-3,1.7530812E-2,3.1725015E-3,-5.739864E-3,-1.1710122E-2,-2.4691893E-2,3.679791E-3,-2.4818406E-2,1.2793073E-2,3.4794305E-2,-1.3496388E-2,7.188038E-3,3.811643E-3,-4.4512134E-3,2.1357678E-3,-1.0242065E-2,2.254227E-3,7.4454728E-3,1.6492831E-4,-1.613738E-2,-1.6258031E-3,1.7647635E-2,-2.6201028E-3,-1.499244E-2,3.8969256E-3,-3.1873037E-3,1.458692E-3,-2.3166223E-4,-3.0488926E-3,1.7114029E-4,7.7827037E-3,5.1609427E-4,3.4047246E-2,5.539697E-3,2.0873582E-3,-1.9391058E-2,-1.2708572E-2,4.012077E-3,-1.5176932E-2,-3.8665074E-3,4.932925E-3,-2.9739344E-3,9.207429E-3,-7.902962E-3,-6.860011E-3,1.5993975E-2,-1.5210925E-2,5.199459E-3,-5.6260796E-3,1.5702501E-2,-3.6295562E-3,-1.6430369E-2,-3.0986376E-2,-1.2171998E-2,1.2018916E-2,-3.1921703E-3],"categories":[],"categories_nodes":[],"categories_segments":[],"categories_sizes":[],"default_left":[0,0,0,0,0,0,0,0,0,0,0,0,0,0,0,0,0,0,0,0,0,0,0,0,0,0,0,0,0,0,0,0,0,0,0,0,0,0,0,0,0,0,0,0,0,0,0,0,0,0,0,0,0,0,0,0,0,0,0,0,0,0,0,0,0,0,0,0,0,0,0,0,0,0,0,0,0,0,0,0,0,0,0,0,0,0,0,0,0,0,0,0,0,0,0,0,0,0,0,0,0,0,0,0,0,0,0,0,0,0,0,0,0,0,0,0,0,0,0],"id":6,"left_children":[1,3,5,7,9,11,13,15,17,19,21,23,25,27,29,31,33,35,37,39,41,43,45,47,49,51,53,55,57,59,61,63,65,67,69,71,-1,73,75,77,79,81,83,-1,85,87,89,91,93,95,97,99,-1,101,103,105,107,109,111,113,115,-1,117,-1,-1,-1,-1,-1,-1,-1,-1,-1,-1,-1,-1,-1,-1,-1,-1,-1,-1,-1,-1,-1,-1,-1,-1,-1,-1,-1,-1,-1,-1,-1,-1,-1,-1,-1,-1,-1,-1,-1,-1,-1,-1,-1,-1,-1,-1,-1,-1,-1,-1,-1,-1,-1,-1,-1,-1],"loss_changes":[2.3280167E1,2.8847097E1,2.6674278E1,2.2714153E1,2.3923092E1,2.1170303E1,1.3881039E1,1.9474762E1,1.9568153E1,1.5021473E1,1.3446325E1,1.5781808E1,1.2604412E1,3.3488342E1,2.2689095E1,1.0249697E1,1.5704113E1,1.6106148E0,4.5263267E0,1.8121735E1,8.33939E0,9.767434E0,1.9693264E1,1.2017311E1,1.870333E1,1.0956009E1,1.3348976E1,1.7636337E1,1.17697E1,9.54636E0,9.208737E0,9.30122E0,9.560855E0,8.612305E0,1.7112652E1,1.9747009E0,0E0,6.5683804E0,6.5982337E0,2.3917723E1,1.5769505E1,1.2862014E1,5.466631E0,0E0,8.499175E0,1.789075E1,1.6225338E1,1.43274765E1,1.9355934E1,1.544911E1,1.0502009E1,9.233569E0,0E0,1.2450102E1,1.4476608E1,1.4055914E1,1.4145397E1,1.09360895E1,8.966797E0,1.1565611E1,8.850445E0,0E0,2.2533565E0,0E0,0E0,0E0,0E0,0E0,0E0,0E0,0E0,0E0,0E0,0E0,0E0,0E0,0E0,0E0,0E0,0E0,0E0,0E0,0E0,0E0,0E0,0E0,0E0,0E0,0E0,0E0,0E0,0E0,0E0,0E0,0E0,0E0,0E0,0E0,0E0,0E0,0E0,0E0,0E0,0E0,0E0,0E0,0E0,0E0,0E0,0E0,0E0,0E0,0E0,0E0,0E0,0E0,0E0,0E0,0E0],"parents":[2147483647,0,0,1,1,2,2,3,3,4,4,5,5,6,6,7,7,8,8,9,9,10,10,11,11,12,12,13,13,14,14,15,15,16,16,17,17,18,18,19,19,20,20,21,21,22,22,23,23,24,24,25,25,26,26,27,27,28,28,29,29,30,30,31,31,32,32,33,33,34,34,35,35,37,37,38,38,39,39,40,40,41,41,42,42,44,44,45,45,46,46,47,47,48,48,49,49,50,50,51,51,53,53,54,54,55,55,56,56,57,57,58,58,59,59,60,60,62,62],"right_children":[2,4,6,8,10,12,14,16,18,20,22,24,26,28,30,32,34,36,38,40,42,44,46,48,50,52,54,56,58,60,62,64,66,68,70,72,-1,74,76,78,80,82,84,-1,86,88,90,92,94,96,98,100,-1,102,104,106,108,110,112,114,116,-1,118,-1,-1,-1,-1,-1,-1,-1,-1,-1,-1,-1,-1,-1,-1,-1,-1,-1,-1,-1,-1,-1,-1,-1,-1,-1,-1,-1,-1,-1,-1,-1,-1,-1,-1,-1,-1,-1,-1,-1,-1,-1,-1,-1,-1,-1,-1,-1,-1,-1,-1,-1,-1,-1,-1,-1,-1],"split_conditions":[4.2E1,7.713397E-5,1.0320155E1,1E0,1.0403407E-4,1.9978075E0,5.29255E-4,2.4989245E0,5.1601117E-5,8.648891E0,1.12483576E-4,1.15E2,9.126456E-5,2.6873403E-4,1.2979878E-3,5.1601117E-5,6.76409E-1,1.7616117E0,6.222812E-5,-3.257681E1,2.6E1,-6.069099E0,1.3122673E-4,1E0,1.6391362E0,1.14E2,1.1983218E-4,9.66248E-5,3.2156272E0,7.3E1,1.8867718E1,-2.5333118E1,-2.6225789E0,-4.195626E-1,3.2E1,2.1E1,9.958537E-3,-1.229382E0,1E1,2.9E1,1.8E1,7E0,2.699103E0,2.2587603E-2,4.5609776E1,3.3E1,-3.760412E1,-2.9852764E1,9.986474E-5,7.404364E-5,1.3E2,-1.0485792E0,2.599676E-2,6.76409E-1,1.3563402E-4,2.5833874E1,1.4E2,4.3E1,1.09E2,8.609443E-4,5.820935E-4,2.6739486E-2,-2.3662264E0,-1.8204323E-3,1.7530812E-2,3.1725015E-3,-5.739864E-3,-1.1710122E-2,-2.4691893E-2,3.679791E-3,-2.4818406E-2,1.2793073E-2,3.4794305E-2,-1.3496388E-2,7.188038E-3,3.811643E-3,-4.4512134E-3,2.1357678E-3,-1.0242065E-2,2.254227E-3,7.4454728E-3,1.6492831E-4,-1.613738E-2,-1.6258031E-3,1.7647635E-2,-2.6201028E-3,-1.499244E-2,3.8969256E-3,-3.1873037E-3,1.458692E-3,-2.3166223E-4,-3.0488926E-3,1.7114029E-4,7.7827037E-3,5.1609427E-4,3.4047246E-2,5.539697E-3,2.0873582E-3,-1.9391058E-2,-1.2708572E-2,4.012077E-3,-1.5176932E-2,-3.8665074E-3,4.932925E-3,-2.9739344E-3,9.207429E-3,-7.902962E-3,-6.860011E-3,1.5993975E-2,-1.5210925E-2,5.199459E-3,-5.6260796E-3,1.5702501E-2,-3.6295562E-3,-1.6430369E-2,-3.0986376E-2,-1.2171998E-2,1.2018916E-2,-3.1921703E-3],"split_indices":[0,8,5,6,8,2,8,2,8,2,8,0,8,8,8,8,4,4,8,5,0,4,8,6,4,0,8,8,2,0,5,5,4,4,0,0,0,4,0,0,0,0,4,0,5,0,5,5,8,8,0,4,0,4,8,5,0,0,0,8,8,0,4,0,0,0,0,0,0,0,0,0,0,0,0,0,0,0,0,0,0,0,0,0,0,0,0,0,0,0,0,0,0,0,0,0,0,0,0,0,0,0,0,0,0,0,0,0,0,0,0,0,0,0,0,0,0,0,0],"split_type":[0,0,0,0,0,0,0,0,0,0,0,0,0,0,0,0,0,0,0,0,0,0,0,0,0,0,0,0,0,0,0,0,0,0,0,0,0,0,0,0,0,0,0,0,0,0,0,0,0,0,0,0,0,0,0,0,0,0,0,0,0,0,0,0,0,0,0,0,0,0,0,0,0,0,0,0,0,0,0,0,0,0,0,0,0,0,0,0,0,0,0,0,0,0,0,0,0,0,0,0,0,0,0,0,0,0,0,0,0,0,0,0,0,0,0,0,0,0,0],"sum_hessian":[5.3412824E4,3.7237625E4,1.6175202E4,1.7746672E3,3.5462957E4,1.3272772E4,2.9024297E3,1.2145266E3,5.601406E2,3.4749985E3,3.1987959E4,9.911871E3,3.360901E3,2.3541597E3,5.482702E2,8.083368E2,4.0618988E2,4.445215E1,5.156885E2,3.2555654E3,2.1943312E2,1.1398168E3,3.084814E4,9.225987E3,6.858837E2,2.8399863E2,3.076902E3,1.5276285E3,8.2653107E2,4.9266852E2,5.560166E1,8.5461754E1,7.22875E2,2.8773962E2,1.1845025E2,2.6590899E1,1.786125E1,1.2857191E2,3.8711658E2,1.1139065E3,2.141659E3,1.6857657E2,5.0856544E1,1.1245504E1,1.1285713E3,2.6193333E3,2.8228809E4,5.3841016E3,3.841886E3,6.0877997E2,7.710375E1,2.6763342E2,1.6365211E1,3.773945E2,2.6995076E3,1.8692578E2,1.3407028E3,6.111162E2,2.1541484E2,3.3786014E2,1.5480838E2,1.7367033E1,3.8234627E1,4.798053E1,3.7481224E1,1.2870247E2,5.9417255E2,2.2351433E2,6.42253E1,9.708344E1,2.136681E1,1.3985617E1,1.2605282E1,1.3371134E1,1.15200775E2,1.26579346E2,2.6053723E2,9.5119885E2,1.6270766E2,1.0005601E3,1.1410989E3,8.559607E1,8.298051E1,3.1864355E1,1.8992188E1,1.077334E3,5.123725E1,2.2490615E3,3.7027164E2,6.695988E3,2.153282E4,1.9361022E3,3.4479995E3,3.6335922E2,3.4785269E3,1.5973183E1,5.9280676E2,3.7237732E1,3.9866016E1,3.1734081E1,2.3589934E2,1.4621072E2,2.3118376E2,2.2442813E2,2.4750796E3,1.2369703E2,6.3228752E1,1.3180889E3,2.2613823E1,2.236855E1,5.887477E2,1.9817227E2,1.7242565E1,2.5176631E2,8.609383E1,2.9617105E1,1.2519128E2,1.0120143E1,2.8114485E1],"tree_param":{"num_deleted":"0","num_feature":"9","num_nodes":"119","size_leaf_vector":"1"}},{"base_weights":[-1.4395515E-3,6.099959E-3,-8.058071E-2,-8.609656E-2,1.0799459E-2,-8.973904E-2,6.8937784E-1,2.1127276E-1,-1.1592491E-1,9.058186E-2,4.496611E-3,-2.5605047E-2,-1.7339139E-1,9.227529E-1,-0E0,2.913748E-1,-3.748791E-1,-1.2477829E-1,2.9905858E-2,1.666557E-2,1.5260991E-1,-6.781215E-2,1.078885E-2,-1.7714942E-1,2.402175E-2,1.7822725E-1,-1.9991429E-1,9.3877595E-3,1.0939708E0,-1.953882E-1,4.0199494E-1,-3.0969586E-2,9.199444E-3,-1.5528344E-1,1.1813141E-1,-4.1667283E-2,1.8854056E-1,3.0840084E-1,8.700462E-2,-2.8630406E-2,-1.5744753E-1,8.950992E-2,5.065884E-3,-2.9859766E-1,7.165747E-2,1.22118324E-1,-4.3484557E-2,2.931815E-1,-1.86201E-2,-3.0817983E-1,-1.165024E-1,1.9500008E-2,4.0123954E-2,-1.4767477E-2,6.205844E-3,1.4302021E-2,-1.296192E-2,-2.2582144E-3,-7.7695707E-3,1.2879527E-2,6.272116E-4,1.9145291E-4,-1.1290988E-2,1.2255572E-2,2.0013326E-3,7.812241E-3,1.6579194E-2,1.1669239E-3,6.590181E-3,-1.1002924E-3,1.3785231E-2,-7.896662E-3,1.18169E-3,6.7512493E-4,4.9443077E-3,6.989801E-5,4.1041886E-3,-1.571362E-2,-6.0246796E-3,3.504291E-3,-1.9295951E-2,7.1113766E-3,-1.9467411E-4,-3.46534E-3,1.7528604E-3,-4.3008724E-4,1.5372349E-2,-6.5190024E-3,-1.781747E-2,1.0713617E-5,-8.958464E-3],"categories":[],"categories_nodes":[],"categories_segments":[],"categories_sizes":[],"default_left":[0,0,0,0,0,0,0,0,0,0,0,0,0,0,0,0,0,0,0,0,0,0,0,0,0,0,0,0,0,0,0,0,0,0,0,0,0,0,0,0,0,0,0,0,0,0,0,0,0,0,0,0,0,0,0,0,0,0,0,0,0,0,0,0,0,0,0,0,0,0,0,0,0,0,0,0,0,0,0,0,0,0,0,0,0,0,0,0,0,0,0],"id":7,"left_children":[1,3,5,7,9,11,13,15,17,19,21,23,25,27,-1,29,31,33,-1,35,37,39,41,43,45,47,49,-1,51,53,55,-1,-1,57,59,61,63,65,67,69,71,73,75,77,79,81,83,85,-1,87,89,-1,-1,-1,-1,-1,-1,-1,-1,-1,-1,-1,-1,-1,-1,-1,-1,-1,-1,-1,-1,-1,-1,-1,-1,-1,-1,-1,-1,-1,-1,-1,-1,-1,-1,-1,-1,-1,-1,-1,-1],"loss_changes":[3.1873638E1,2.1068777E1,3.258981E1,2.091221E1,2.3260868E1,2.4540524E1,8.905617E0,1.0228904E1,2.094886E1,1.5443546E1,1.9522572E1,1.968647E1,1.8641556E1,2.8630981E0,0E0,1.05035305E1,1.2584824E1,1.5843521E1,0E0,1.564696E1,1.8536118E1,1.1957004E1,1.776353E1,1.9666893E1,1.3046932E1,1.2994888E1,1.644751E1,0E0,5.4833984E-1,4.6135216E0,1.018976E1,0E0,0E0,1.5522366E1,6.9281907E0,1.881299E1,1.0313548E1,5.65477E0,8.141178E0,9.2309475E0,2.1787046E1,1.3387777E1,1.3217129E1,9.018921E0,6.731596E0,1.1996028E1,8.5647545E0,8.603261E0,0E0,2.0173737E1,2.2544563E1,0E0,0E0,0E0,0E0,0E0,0E0,0E0,0E0,0E0,0E0,0E0,0E0,0E0,0E0,0E0,0E0,0E0,0E0,0E0,0E0,0E0,0E0,0E0,0E0,0E0,0E0,0E0,0E0,0E0,0E0,0E0,0E0,0E0,0E0,0E0,0E0,0E0,0E0,0E0,0E0],"parents":[2147483647,0,0,1,1,2,2,3,3,4,4,5,5,6,6,7,7,8,8,9,9,10,10,11,11,12,12,13,13,15,15,16,16,17,17,19,19,20,20,21,21,22,22,23,23,24,24,25,25,26,26,28,28,29,29,30,30,33,33,34,34,35,35,36,36,37,37,38,38,39,39,40,40,41,41,42,42,43,43,44,44,45,45,46,46,47,47,49,49,50,50],"right_children":[2,4,6,8,10,12,14,16,18,20,22,24,26,28,-1,30,32,34,-1,36,38,40,42,44,46,48,50,-1,52,54,56,-1,-1,58,60,62,64,66,68,70,72,74,76,78,80,82,84,86,-1,88,90,-1,-1,-1,-1,-1,-1,-1,-1,-1,-1,-1,-1,-1,-1,-1,-1,-1,-1,-1,-1,-1,-1,-1,-1,-1,-1,-1,-1,-1,-1,-1,-1,-1,-1,-1,-1,-1,-1,-1,-1],"split_conditions":[7.977269E1,7.713397E-5,1.5110476E-3,5.1601117E-5,9.7721306E-5,4.1E1,4.5E1,5.7E1,1.23E2,2.5085659E1,1.16641015E-4,1.6E1,9.881859E-5,-9.1804224E-1,-0E0,-2.025709E0,2.5582651E1,2.890258E0,2.9905858E-2,4E1,-1.6569578E1,4.1E1,1.3122673E-4,7.380881E0,1.894181E-4,3.9169357E1,2.2490598E-4,9.3877595E-3,1.9613772E-3,2.9492933E1,7.5446687E0,-3.0969586E-2,9.199444E-3,8.1520814E-1,3.2210417E0,2.9E1,8.554688E-5,4.0865704E1,1.1185105E0,7.624336E1,7.1E1,2.1200128E-1,1.175646E-3,1.1E1,2.890258E0,1.1096295E0,3E1,7.713397E-5,-1.86201E-2,1.8800638E-4,4.6712498E-4,1.9500008E-2,4.0123954E-2,-1.4767477E-2,6.205844E-3,1.4302021E-2,-1.296192E-2,-2.2582144E-3,-7.7695707E-3,1.2879527E-2,6.272116E-4,1.9145291E-4,-1.1290988E-2,1.2255572E-2,2.0013326E-3,7.812241E-3,1.6579194E-2,1.1669239E-3,6.590181E-3,-1.1002924E-3,1.3785231E-2,-7.896662E-3,1.18169E-3,6.7512493E-4,4.9443077E-3,6.989801E-5,4.1041886E-3,-1.571362E-2,-6.0246796E-3,3.504291E-3,-1.9295951E-2,7.1113766E-3,-1.9467411E-4,-3.46534E-3,1.7528604E-3,-4.3008724E-4,1.5372349E-2,-6.5190024E-3,-1.781747E-2,1.0713617E-5,-8.958464E-3],"split_indices":[1,8,8,8,8,0,0,0,0,1,8,0,8,4,0,4,1,4,0,0,5,0,8,2,8,5,8,0,8,1,2,0,0,2,4,0,8,1,4,1,0,4,8,0,4,2,0,8,0,8,8,0,0,0,0,0,0,0,0,0,0,0,0,0,0,0,0,0,0,0,0,0,0,0,0,0,0,0,0,0,0,0,0,0,0,0,0,0,0,0,0],"split_type":[0,0,0,0,0,0,0,0,0,0,0,0,0,0,0,0,0,0,0,0,0,0,0,0,0,0,0,0,0,0,0,0,0,0,0,0,0,0,0,0,0,0,0,0,0,0,0,0,0,0,0,0,0,0,0,0,0,0,0,0,0,0,0,0,0,0,0,0,0,0,0,0,0,0,0,0,0,0,0,0,0,0,0,0,0,0,0,0,0,0,0],"sum_hessian":[5.3351754E4,4.8707117E4,4.6446343E3,2.3554763E3,4.635164E4,4.592426E3,5.2208668E1,2.1209529E2,2.143381E3,3.3859316E3,4.296571E4,2.6043389E3,1.9880868E3,3.8715137E1,1.3493528E1,1.8823094E2,2.3864344E1,2.1286704E3,1.4710731E1,1.5497529E3,1.8361787E3,3.4316033E3,3.9534105E4,6.436805E2,1.9606584E3,1.3732013E2,1.8507667E3,1.0366886E1,2.8348251E1,3.37348E1,1.5449614E2,1.1996268E1,1.1868075E1,1.8936423E3,2.3502802E2,1.156017E3,3.9373593E2,5.396545E2,1.2965243E3,2.393545E3,1.0380582E3,2.6714116E3,3.6862695E4,4.3362683E2,2.1005367E2,8.016019E2,1.1590565E3,1.2170041E2,1.56197195E1,8.0044086E2,1.0503258E3,1.33674135E1,1.4980838E1,1.986783E1,1.3866969E1,1.4312701E2,1.136914E1,1.0735994E3,8.20043E2,5.309917E1,1.8192885E2,1.01130334E3,1.4471368E2,1.3719768E2,2.5653824E2,4.5619254E2,8.346193E1,9.5616266E2,3.4036166E2,2.357559E3,3.5985756E1,6.764302E2,3.6162802E2,1.4184481E3,1.2529634E3,3.6118426E4,7.442674E2,1.27090775E2,3.0653604E2,1.99806E2,1.0247653E1,4.244774E2,3.7712454E2,6.818213E2,4.7723526E2,5.0479908E1,7.12205E1,6.112883E2,1.8915251E2,6.3932806E2,4.1099774E2],"tree_param":{"num_deleted":"0","num_feature":"9","num_nodes":"91","size_leaf_vector":"1"}},{"base_weights":[-2.1334807E-3,-2.0554088E-2,5.4403573E-2,-1.9461842E-1,-1.35173835E-2,1.6829331E-1,2.798132E-2,-9.583508E-2,-3.199155E-1,-1.700644E-2,1.8084513E-1,1.3750684E-1,3.2964838E-1,4.535101E-2,-8.291303E-2,2.534263E-1,-1.4196457E-1,-3.5484073E-1,8.0575354E-2,-7.516584E-3,-7.372206E-2,-6.040616E-1,2.1306726E-1,4.6419987E-1,1.2682614E-1,4.573558E-1,-1.2502596E-1,-1.8391943E-1,5.1899165E-2,-9.2694305E-2,1.689818E-2,3.8203815E-1,-1.9041906E-1,-1.6525924E-1,3.078001E-1,2.1554212E-1,-3.7643492E-1,-1.9795863E-1,3.684373E-1,-5.677659E-3,-2.3389441E-1,1.6902411E-1,-9.007138E-2,-2.7186781E-2,-1.982802E-3,5.4180807E-1,1.4978933E-1,1.883591E-1,7.683282E-1,4.2117495E-2,1.85765E-1,2.2226049E-2,4.178554E-1,1.404228E-1,-4.1008505E-1,3.511094E-2,-3.4857124E-1,1.2792902E-1,3.2277506E-2,-6.782225E-1,-8.263662E-2,7.916216E-3,2.6458701E-2,-1.0688914E-2,-0E0,1.537464E-2,-5.4574125E-3,1.6282711E-2,-0E0,-0E0,1.1282349E-2,-6.425219E-4,-1.2304286E-2,-0E0,-1.5025547E-2,1.9123938E-2,-1.5840793E-3,-1.359211E-3,1.3575556E-4,1.5329046E-2,-1.064403E-2,1.5807583E-3,1.1986826E-2,-1.8835682E-3,-5.6986217E-3,1.0719293E-3,2.11032E-2,1.0834479E-2,2.111354E-3,1.1373023E-2,-5.6125E-3,3.2094657E-2,1.3876279E-2,1.9569125E-3,-1.5545052E-2,6.3581606E-3,-1.4894405E-4,1.3280634E-2,-0E0,-3.925892E-3,2.408687E-2,-5.6738365E-3,-1.8896217E-2,1.0507954E-2,-5.8439486E-3,-2.0995028E-2,-2.993355E-3,1.5720078E-3,6.769255E-3,1.5694068E-3,-9.357634E-4,-7.7260584E-3,-2.797761E-2,-1.2435596E-3,-6.892471E-3],"categories":[],"categories_nodes":[],"categories_segments":[],"categories_sizes":[],"default_left":[0,0,0,0,0,0,0,0,0,0,0,0,0,0,0,0,0,0,0,0,0,0,0,0,0,0,0,0,0,0,0,0,0,0,0,0,0,0,0,0,0,0,0,0,0,0,0,0,0,0,0,0,0,0,0,0,0,0,0,0,0,0,0,0,0,0,0,0,0,0,0,0,0,0,0,0,0,0,0,0,0,0,0,0,0,0,0,0,0,0,0,0,0,0,0,0,0,0,0,0,0,0,0,0,0,0,0,0,0,0,0,0,0,0,0],"id":8,"left_children":[1,3,5,7,9,11,13,15,17,19,21,23,25,27,29,31,33,35,37,39,41,43,45,47,49,51,53,55,57,59,-1,61,63,65,67,69,71,73,75,77,79,81,83,-1,-1,85,87,89,91,93,95,-1,97,99,101,103,105,107,109,111,113,-1,-1,-1,-1,-1,-1,-1,-1,-1,-1,-1,-1,-1,-1,-1,-1,-1,-1,-1,-1,-1,-1,-1,-1,-1,-1,-1,-1,-1,-1,-1,-1,-1,-1,-1,-1,-1,-1,-1,-1,-1,-1,-1,-1,-1,-1,-1,-1,-1,-1,-1,-1,-1,-1],"loss_changes":[5.559303E1,4.92287E1,3.935977E1,1.9066845E1,2.618256E1,1.1924843E1,2.0505917E1,1.4171902E1,9.783974E0,2.0433636E1,1.727215E1,6.8332024E0,2.2987514E1,1.3786598E1,8.966043E0,6.061594E0,8.1885805E0,8.028603E0,4.679015E0,1.3448387E1,2.1601591E1,3.7412806E0,1.3132521E1,4.560376E0,9.931782E0,2.234993E0,6.7927237E0,9.347974E0,1.3281712E1,7.871622E0,0E0,3.722412E0,7.867519E-1,8.404156E0,2.7322717E0,7.4645936E-1,7.0741425E0,1.9194164E0,3.630462E0,1.3097263E1,2.3739244E1,8.913648E0,1.3762405E1,0E0,0E0,8.071312E0,9.0307045E0,2.8744164E0,8.896885E-1,1.0627395E1,6.0178337E0,0E0,3.065586E0,8.697225E0,1.4458904E0,8.15493E0,1.2271257E1,1.3361952E1,9.082957E0,1.3715858E0,8.324104E0,0E0,0E0,0E0,0E0,0E0,0E0,0E0,0E0,0E0,0E0,0E0,0E0,0E0,0E0,0E0,0E0,0E0,0E0,0E0,0E0,0E0,0E0,0E0,0E0,0E0,0E0,0E0,0E0,0E0,0E0,0E0,0E0,0E0,0E0,0E0,0E0,0E0,0E0,0E0,0E0,0E0,0E0,0E0,0E0,0E0,0E0,0E0,0E0,0E0,0E0,0E0,0E0,0E0,0E0],"parents":[2147483647,0,0,1,1,2,2,3,3,4,4,5,5,6,6,7,7,8,8,9,9,10,10,11,11,12,12,13,13,14,14,15,15,16,16,17,17,18,18,19,19,20,20,21,21,22,22,23,23,24,24,25,25,26,26,27,27,28,28,29,29,31,31,32,32,33,33,34,34,35,35,36,36,37,37,38,38,39,39,40,40,41,41,42,42,45,45,46,46,47,47,48,48,49,49,50,50,52,52,53,53,54,54,55,55,56,56,57,57,58,58,59,59,60,60],"right_children":[2,4,6,8,10,12,14,16,18,20,22,24,26,28,30,32,34,36,38,40,42,44,46,48,50,52,54,56,58,60,-1,62,64,66,68,70,72,74,76,78,80,82,84,-1,-1,86,88,90,92,94,96,-1,98,100,102,104,106,108,110,112,114,-1,-1,-1,-1,-1,-1,-1,-1,-1,-1,-1,-1,-1,-1,-1,-1,-1,-1,-1,-1,-1,-1,-1,-1,-1,-1,-1,-1,-1,-1,-1,-1,-1,-1,-1,-1,-1,-1,-1,-1,-1,-1,-1,-1,-1,-1,-1,-1,-1,-1,-1,-1,-1,-1],"split_conditions":[8.095238E-1,7.713397E-5,1.0403407E-4,7.6427776E-1,1.175646E-3,6.426493E1,6.9737E1,-3.682816E0,6.700644E1,6.909072E1,2.4828278E1,5.1601117E-5,8.044901E0,1.09274486E-4,1.5110476E-3,5.181592E1,4.748616E-1,7.870016E0,5.889235E0,1.0512809E-3,1.0090054E-4,5.0248294E0,3.443654E1,2.482192E1,8.016128E-5,-1.5544779E0,6.0193336E1,5.2055885E1,1.5005351E-4,1.071635E-4,1.689818E-2,4.976782E1,-4.372974E0,3.629544E1,2.6095438E1,6.847042E-5,5.1601117E-5,1.7947439E0,2.890258E0,4.5454547E-2,3.7849266E1,6.6197464E1,4.61011E-4,-2.7186781E-2,-1.982802E-3,1.4285715E-1,1.418581E1,5.48626E1,3.531641E1,7.242076E1,3.2829416E0,2.2226049E-2,4.595001E0,6.981509E1,1.1218778E1,-1.7723349E0,-7.675781E-1,6.1663425E-1,3.08771E0,6.519126E1,4.6712498E-4,7.916216E-3,2.6458701E-2,-1.0688914E-2,-0E0,1.537464E-2,-5.4574125E-3,1.6282711E-2,-0E0,-0E0,1.1282349E-2,-6.425219E-4,-1.2304286E-2,-0E0,-1.5025547E-2,1.9123938E-2,-1.5840793E-3,-1.359211E-3,1.3575556E-4,1.5329046E-2,-1.064403E-2,1.5807583E-3,1.1986826E-2,-1.8835682E-3,-5.6986217E-3,1.0719293E-3,2.11032E-2,1.0834479E-2,2.111354E-3,1.1373023E-2,-5.6125E-3,3.2094657E-2,1.3876279E-2,1.9569125E-3,-1.5545052E-2,6.3581606E-3,-1.4894405E-4,1.3280634E-2,-0E0,-3.925892E-3,2.408687E-2,-5.6738365E-3,-1.8896217E-2,1.0507954E-2,-5.8439486E-3,-2.0995028E-2,-2.993355E-3,1.5720078E-3,6.769255E-3,1.5694068E-3,-9.357634E-4,-7.7260584E-3,-2.797761E-2,-1.2435596E-3,-6.892471E-3],"split_indices":[7,8,8,2,8,3,1,4,3,1,3,8,2,8,8,3,2,1,2,8,8,2,3,1,8,2,1,3,8,8,0,3,2,3,1,8,8,4,4,7,3,3,8,0,0,7,1,3,1,1,4,0,4,3,2,2,2,2,2,3,8,0,0,0,0,0,0,0,0,0,0,0,0,0,0,0,0,0,0,0,0,0,0,0,0,0,0,0,0,0,0,0,0,0,0,0,0,0,0,0,0,0,0,0,0,0,0,0,0,0,0,0,0,0,0],"split_type":[0,0,0,0,0,0,0,0,0,0,0,0,0,0,0,0,0,0,0,0,0,0,0,0,0,0,0,0,0,0,0,0,0,0,0,0,0,0,0,0,0,0,0,0,0,0,0,0,0,0,0,0,0,0,0,0,0,0,0,0,0,0,0,0,0,0,0,0,0,0,0,0,0,0,0,0,0,0,0,0,0,0,0,0,0,0,0,0,0,0,0,0,0,0,0,0,0,0,0,0,0,0,0,0,0,0,0,0,0,0,0,0,0,0,0],"sum_hessian":[5.339268E4,4.027923E4,1.3113451E4,1.5602222E3,3.8719008E4,2.4638176E3,1.0649633E4,8.766208E2,6.836013E2,3.8040527E4,6.7847864E2,2.0747578E3,3.8905966E2,9.212366E3,1.4372672E3,9.996051E1,7.766603E2,6.301269E2,5.347446E1,3.2597312E4,5.4432153E3,2.4743158E1,6.537355E2,6.151295E1,2.0132449E3,3.0459418E2,8.44655E1,2.5218227E2,8.960184E3,1.4182856E3,1.898161E1,7.859212E1,2.1368393E1,7.406753E2,3.598499E1,2.1485937E1,6.086409E2,2.6612247E1,2.6862213E1,3.2338875E4,2.584381E2,3.4036688E2,5.1028486E3,1.4372155E1,1.0371002E1,1.0180627E2,5.519292E2,3.4817036E1,2.6695915E1,8.309262E2,1.1823187E3,3.1357399E1,2.7323676E2,4.335439E1,4.1111115E1,1.07592575E2,1.445897E2,1.8305728E3,7.129611E3,2.086742E1,1.3974182E3,6.684742E1,1.1744695E1,1.0872046E1,1.04963455E1,1.5616206E1,7.250591E2,1.9491251E1,1.6493738E1,1.0493537E1,1.0992399E1,5.4347588E1,5.5429333E2,1.6490921E1,1.01213255E1,1.6490698E1,1.0371515E1,6.629813E3,2.5709062E4,3.461286E1,2.2382526E2,2.2928989E2,1.11076996E2,4.0144512E3,1.0883972E3,2.5984175E1,7.582209E1,1.47077E2,4.048522E2,2.3957712E1,1.08593235E1,1.0102684E1,1.6593231E1,8.0056104E2,3.03652E1,1.0417582E3,1.4056047E2,2.5886716E2,1.4369598E1,3.1361769E1,1.19926195E1,2.3491074E1,1.7620039E1,4.585854E1,6.173403E1,5.761262E1,8.697708E1,1.0371104E3,7.934624E2,5.425212E3,1.7043988E3,1.0120307E1,1.0747112E1,1.0964309E3,3.009873E2],"tree_param":{"num_deleted":"0","num_feature":"9","num_nodes":"115","size_leaf_vector":"1"}},{"base_weights":[-3.6447365E-3,-1.948521E-2,6.5107025E-2,-1.8721755E-1,-1.3302155E-2,1.8479311E-1,2.7200833E-2,1.8525691E-1,-2.1237704E-1,-1.6698644E-2,1.6913366E-1,1.6544156E-1,4.186652E-1,5.1790874E-2,-7.0107274E-2,6.0031954E-2,1.8819377E-2,-2.4470177E-1,1.3253939E-1,-7.0012296E-3,-1.214863E-1,-2.4696127E-2,1.9498876E-1,9.841318E-2,2.2304931E-1,5.9846413E-1,2.015756E-1,1.6909523E-2,9.588542E-2,-7.8590274E-2,4.6430597E-1,-5.7407166E-3,1.2040867E-2,-3.21658E-1,-1.3781214E-1,4.378526E-1,-9.488853E-2,-2.7593441E-2,1.8199546E-2,-9.639509E-2,-3.353254E-1,2.1351847E-1,-1.996091E-2,4.8785844E-1,6.807014E-2,3.2391915E-1,1.578212E-1,9.137196E-1,3.4304395E-1,5.266026E-2,1.7733684E-2,2.1769023E-2,-5.43675E-1,1.7132704E-1,3.7693273E-2,-1.7238411E-1,-2.2697799E-2,1.9828798E-2,4.007613E-3,-5.4562865E-3,5.3748693E-3,1.1945581E-3,-1.0673267E-2,3.6150878E-3,-5.6655626E-3,2.3837283E-2,6.488945E-3,6.138606E-3,-5.7876143E-3,-2.0569207E-3,-3.0223557E-4,8.6482195E-4,-2.1039387E-3,-3.4531911E-3,2.3918764E-3,-3.382339E-3,-1.7551316E-2,-1.2219582E-3,7.992886E-3,1.7807985E-2,-2.640542E-3,6.527676E-3,8.769184E-4,-1.7880596E-4,1.07761305E-2,3.887954E-3,1.0531849E-2,3.381628E-2,1.4228232E-2,1.5069215E-2,-6.5116687E-3,7.239371E-3,-1.0010107E-2,2.4104299E-4,8.246079E-3,1.3037382E-3,-3.1806182E-2,-4.319091E-4,6.3898317E-3,2.264836E-4,8.039448E-3,-0E0,-9.877156E-3,3.0758758E-3,-1.607885E-3],"categories":[],"categories_nodes":[],"categories_segments":[],"categories_sizes":[],"default_left":[0,0,0,0,0,0,0,0,0,0,0,0,0,0,0,0,0,0,0,0,0,0,0,0,0,0,0,0,0,0,0,0,0,0,0,0,0,0,0,0,0,0,0,0,0,0,0,0,0,0,0,0,0,0,0,0,0,0,0,0,0,0,0,0,0,0,0,0,0,0,0,0,0,0,0,0,0,0,0,0,0,0,0,0,0,0,0,0,0,0,0,0,0,0,0,0,0,0,0,0,0,0,0,0,0],"id":9,"left_children":[1,3,5,7,9,11,13,15,17,19,21,23,25,27,29,31,-1,33,35,37,39,-1,41,43,45,47,49,51,53,55,57,59,-1,61,63,65,67,69,71,73,75,77,-1,79,81,83,85,87,89,91,-1,93,95,97,99,101,103,-1,-1,-1,-1,-1,-1,-1,-1,-1,-1,-1,-1,-1,-1,-1,-1,-1,-1,-1,-1,-1,-1,-1,-1,-1,-1,-1,-1,-1,-1,-1,-1,-1,-1,-1,-1,-1,-1,-1,-1,-1,-1,-1,-1,-1,-1,-1,-1],"loss_changes":[5.8090405E1,4.4878105E1,4.519025E1,1.4514793E1,2.58535E1,1.0424614E1,1.8159012E1,4.961042E0,1.621865E1,4.1675312E1,1.956154E1,8.369526E0,6.385168E0,9.267225E0,6.806322E0,1.9721222E0,0E0,1.0557289E1,8.843169E0,1.9519987E1,1.8364151E1,0E0,1.1933617E1,1.1873457E1,7.477207E0,6.4901276E0,4.5946083E0,9.009754E0,1.1610849E1,7.7926006E0,9.376774E-1,2.2432377E0,0E0,9.614471E0,7.4583855E0,3.4263935E0,2.1751287E0,1.4821254E1,1.5848685E1,1.0301254E1,1.9641125E1,9.972328E0,0E0,4.815838E0,5.454544E0,5.5568275E0,3.6429749E0,1.97406E0,5.46451E0,4.8678474E0,0E0,1.1562093E1,9.202882E0,9.074776E0,1.0371412E1,1.5032352E1,3.6610548E0,0E0,0E0,0E0,0E0,0E0,0E0,0E0,0E0,0E0,0E0,0E0,0E0,0E0,0E0,0E0,0E0,0E0,0E0,0E0,0E0,0E0,0E0,0E0,0E0,0E0,0E0,0E0,0E0,0E0,0E0,0E0,0E0,0E0,0E0,0E0,0E0,0E0,0E0,0E0,0E0,0E0,0E0,0E0,0E0,0E0,0E0,0E0,0E0],"parents":[2147483647,0,0,1,1,2,2,3,3,4,4,5,5,6,6,7,7,8,8,9,9,10,10,11,11,12,12,13,13,14,14,15,15,17,17,18,18,19,19,20,20,22,22,23,23,24,24,25,25,26,26,27,27,28,28,29,29,30,30,31,31,33,33,34,34,35,35,36,36,37,37,38,38,39,39,40,40,41,41,43,43,44,44,45,45,46,46,47,47,48,48,49,49,51,51,52,52,53,53,54,54,55,55,56,56],"right_children":[2,4,6,8,10,12,14,16,18,20,22,24,26,28,30,32,-1,34,36,38,40,-1,42,44,46,48,50,52,54,56,58,60,-1,62,64,66,68,70,72,74,76,78,-1,80,82,84,86,88,90,92,-1,94,96,98,100,102,104,-1,-1,-1,-1,-1,-1,-1,-1,-1,-1,-1,-1,-1,-1,-1,-1,-1,-1,-1,-1,-1,-1,-1,-1,-1,-1,-1,-1,-1,-1,-1,-1,-1,-1,-1,-1,-1,-1,-1,-1,-1,-1,-1,-1,-1,-1,-1,-1],"split_conditions":[9.0909094E-1,7.713397E-5,1.02992446E-4,-4.256302E0,1.175646E-3,6.828066E1,6.3042835E1,-4.502737E0,2.6525793E0,6.464494E-4,2.3553215E1,8.1654835E-5,1.9246942E0,1.3843379E0,1.44E2,6E1,1.8819377E-2,2.6923078E-1,3.2210417E0,2.4065301E-4,1.0512809E-3,-2.4696127E-2,1.19E2,5.1601117E-5,1.4094262E-1,7.027525E1,6.1E1,1.32E2,1.894181E-4,1.0695767E0,1.1690972E0,6.847042E-5,1.2040867E-2,5.1601117E-5,-2.2472525E0,4.5454547E-2,5.0141792E1,1.6666667E-1,7.5E1,8.1E1,2.8E1,-2.3662264E0,-1.996091E-2,5.1E1,8E0,-2.914467E0,6.3661415E1,8.966777E-1,9.66248E-5,4.1E1,1.7733684E-2,8.6E1,5.650647E1,1.156155E-4,6.0614887E1,-8.4615685E-2,1.6391362E0,1.9828798E-2,4.007613E-3,-5.4562865E-3,5.3748693E-3,1.1945581E-3,-1.0673267E-2,3.6150878E-3,-5.6655626E-3,2.3837283E-2,6.488945E-3,6.138606E-3,-5.7876143E-3,-2.0569207E-3,-3.0223557E-4,8.6482195E-4,-2.1039387E-3,-3.4531911E-3,2.3918764E-3,-3.382339E-3,-1.7551316E-2,-1.2219582E-3,7.992886E-3,1.7807985E-2,-2.640542E-3,6.527676E-3,8.769184E-4,-1.7880596E-4,1.07761305E-2,3.887954E-3,1.0531849E-2,3.381628E-2,1.4228232E-2,1.5069215E-2,-6.5116687E-3,7.239371E-3,-1.0010107E-2,2.4104299E-4,8.246079E-3,1.3037382E-3,-3.1806182E-2,-4.319091E-4,6.3898317E-3,2.264836E-4,8.039448E-3,-0E0,-9.877156E-3,3.0758758E-3,-1.607885E-3],"split_indices":[7,8,8,4,8,3,3,4,4,8,3,8,4,4,0,0,0,7,4,8,8,0,0,8,4,3,0,0,8,4,4,8,0,8,4,7,3,7,0,0,0,4,0,0,0,4,3,4,8,0,0,0,3,8,3,4,4,0,0,0,0,0,0,0,0,0,0,0,0,0,0,0,0,0,0,0,0,0,0,0,0,0,0,0,0,0,0,0,0,0,0,0,0,0,0,0,0,0,0,0,0,0,0,0,0],"split_type":[0,0,0,0,0,0,0,0,0,0,0,0,0,0,0,0,0,0,0,0,0,0,0,0,0,0,0,0,0,0,0,0,0,0,0,0,0,0,0,0,0,0,0,0,0,0,0,0,0,0,0,0,0,0,0,0,0,0,0,0,0,0,0,0,0,0,0,0,0,0,0,0,0,0,0,0,0,0,0,0,0,0,0,0,0,0,0,0,0,0,0,0,0,0,0,0,0,0,0,0,0,0,0,0,0],"sum_hessian":[5.3356547E4,4.3372246E4,9.984302E3,1.5370168E3,4.183523E4,2.39652E3,7.5877817E3,9.5188965E1,1.4418279E3,4.1075074E4,7.6015533E2,2.2185044E3,1.780157E2,6.0619766E3,1.5258054E3,7.6827934E1,1.8361034E1,1.3201384E3,1.21689445E2,3.760215E4,3.4729282E3,1.724545E1,7.4290985E2,1.0319246E3,1.1865797E3,9.4189186E1,8.382651E1,3.3924539E3,2.6695225E3,1.5045642E3,2.1241203E1,6.4835884E1,1.199205E1,7.6248425E2,5.576541E2,5.2097965E1,6.9591484E1,2.070401E4,1.6898137E4,3.112909E3,3.6001913E2,7.292878E2,1.3622111E1,7.1218506E1,9.607061E2,4.59855E2,7.2672473E2,3.8973484E1,5.5215702E1,6.321479E1,2.061172E1,3.3660889E3,2.6365116E1,1.1570352E3,1.5124873E3,5.5690356E2,9.4766064E2,1.1119997E1,1.0121205E1,3.4606846E1,3.0229036E1,6.446686E1,6.980174E2,8.994104E1,4.677131E2,1.7113728E1,3.4984238E1,1.5367009E1,5.4224472E1,6.1910225E3,1.4512987E4,1.5089585E4,1.8085516E3,2.8171497E3,2.957595E2,1.9294626E2,1.6707289E2,1.2407729E2,6.0521045E2,6.0851746E1,1.036676E1,1.9354506E2,7.671611E2,4.3226326E1,4.166287E2,6.3928595E2,8.74388E1,2.3357883E1,1.5615599E1,4.3846966E1,1.1368735E1,4.3848E1,1.9366789E1,3.1966638E3,1.6942503E2,1.2743505E1,1.3621612E1,2.1005695E2,9.469782E2,1.3411703E3,1.7131705E2,2.670081E2,2.8989545E2,1.8342892E2,7.6423175E2],"tree_param":{"num_deleted":"0","num_feature":"9","num_nodes":"105","size_leaf_vector":"1"}},{"base_weights":[3.215319E-3,-7.324683E-2,1.8141871E-2,-4.381481E-2,-1.2608686E-1,4.7511365E-3,7.183703E-2,3.758207E-2,-6.671332E-2,-8.3256416E-2,-2.6184106E-1,1.8398575E-2,-2.6318345E-2,3.470241E-1,6.600582E-2,6.929566E-2,-1.0376838E-1,-8.728078E-2,2.140691E-2,-3.8317982E-2,-1.7029066E-1,-9.397311E-2,-3.231871E-1,-1.6936342E-3,3.6864165E-2,-3.2667848E-3,-1.1990137E-1,-8.684835E-3,4.083528E-1,7.003259E-2,-1.5310451E-1,-6.784849E-2,1.1167627E-1,1.3557644E-2,-1.6059591E-1,-7.3458716E-2,-3.0568403E-1,-2.125175E-2,2.2545311E-1,-6.3105986E-2,2.178205E-1,-4.119169E-1,-1.2816425E-1,-2.7866343E-2,-3.519707E-2,-2.1541017E-1,-3.903627E-1,-1.8429118E-1,2.9419016E-3,7.105346E-2,2.1874879E-2,1.7972408E-2,-8.493777E-2,-9.632592E-2,-3.2724816E-1,-0E0,4.6204343E-1,9.708357E-2,3.9496146E-2,-2.5952142E-2,-7.545957E-2,-3.8293423E-3,1.1368124E-2,5.397028E-3,1.3020846E-4,-2.3667324E-2,-2.676766E-3,-2.536945E-3,6.302425E-3,-1.1406659E-2,1.42756E-3,-1.1641281E-3,1.1805719E-2,1.2259483E-2,1.4499369E-3,-2.2251152E-3,1.1879958E-2,1.7737968E-2,-5.982963E-3,-4.498839E-3,-2.8593801E-2,2.051895E-2,-4.328086E-3,-1.860704E-2,3.7592323E-4,-9.325323E-3,1.5555129E-2,-2.6838381E-3,-1.3446774E-2,-4.082613E-3,-1.8863957E-2,4.820614E-4,-2.1317767E-3,1.4424205E-3,4.2102356E-3,1.9935663E-3,6.0739676E-5,8.35349E-3,3.361727E-4,-2.3149406E-3,-1.585651E-2,-3.826971E-3,4.351206E-3,-4.9266214E-3,-1.7316747E-2,9.674628E-3,-8.769954E-3,1.7920146E-2,6.7371023E-3,2.4935459E-3,5.4580467E-3,7.511739E-4,5.0264476E-3,3.27815E-4,-1.7077051E-2],"categories":[],"categories_nodes":[],"categories_segments":[],"categories_sizes":[],"default_left":[0,0,0,0,0,0,0,0,0,0,0,0,0,0,0,0,0,0,0,0,0,0,0,0,0,0,0,0,0,0,0,0,0,0,0,0,0,0,0,0,0,0,0,0,0,0,0,0,0,0,0,0,0,0,0,0,0,0,0,0,0,0,0,0,0,0,0,0,0,0,0,0,0,0,0,0,0,0,0,0,0,0,0,0,0,0,0,0,0,0,0,0,0,0,0,0,0,0,0,0,0,0,0,0,0,0,0,0,0,0,0,0,0,0,0],"id":10,"left_children":[1,3,5,7,9,11,13,15,17,19,21,23,25,27,29,31,33,35,37,39,41,43,45,47,49,51,53,-1,55,57,59,61,63,-1,65,67,69,71,73,75,77,79,81,-1,83,85,87,89,91,93,95,97,99,101,103,105,107,109,111,-1,113,-1,-1,-1,-1,-1,-1,-1,-1,-1,-1,-1,-1,-1,-1,-1,-1,-1,-1,-1,-1,-1,-1,-1,-1,-1,-1,-1,-1,-1,-1,-1,-1,-1,-1,-1,-1,-1,-1,-1,-1,-1,-1,-1,-1,-1,-1,-1,-1,-1,-1,-1,-1,-1,-1],"loss_changes":[6.0870033E1,1.3448788E1,3.2063423E1,1.046255E1,1.7858341E1,1.5153673E1,1.4036217E1,5.4957333E0,7.971834E0,9.147308E0,7.369808E0,9.236788E0,2.3449253E1,7.420803E0,7.676983E0,5.883784E0,7.0315847E0,1.0496443E1,7.2972827E0,9.909031E0,7.790104E0,9.440534E0,3.4404678E0,1.0155021E1,6.592764E0,1.5216669E1,1.02336235E1,0E0,3.477909E0,7.0031967E0,8.012909E0,6.2742257E0,5.559642E0,0E0,8.582397E0,1.05154705E1,5.700392E0,4.8225856E0,4.435118E0,7.1795053E0,2.1790424E1,1.5669834E1,8.923521E0,0E0,5.7025127E0,1.5260693E1,5.3531685E0,5.811325E0,1.1237099E1,6.1628647E0,7.950443E0,1.2084445E1,5.8615007E0,1.4620474E1,8.261545E0,2.322169E0,4.0608807E0,5.21027E0,7.3701134E0,0E0,6.4050245E0,0E0,0E0,0E0,0E0,0E0,0E0,0E0,0E0,0E0,0E0,0E0,0E0,0E0,0E0,0E0,0E0,0E0,0E0,0E0,0E0,0E0,0E0,0E0,0E0,0E0,0E0,0E0,0E0,0E0,0E0,0E0,0E0,0E0,0E0,0E0,0E0,0E0,0E0,0E0,0E0,0E0,0E0,0E0,0E0,0E0,0E0,0E0,0E0,0E0,0E0,0E0,0E0,0E0,0E0],"parents":[2147483647,0,0,1,1,2,2,3,3,4,4,5,5,6,6,7,7,8,8,9,9,10,10,11,11,12,12,13,13,14,14,15,15,16,16,17,17,18,18,19,19,20,20,21,21,22,22,23,23,24,24,25,25,26,26,28,28,29,29,30,30,31,31,32,32,34,34,35,35,36,36,37,37,38,38,39,39,40,40,41,41,42,42,44,44,45,45,46,46,47,47,48,48,49,49,50,50,51,51,52,52,53,53,54,54,55,55,56,56,57,57,58,58,60,60],"right_children":[2,4,6,8,10,12,14,16,18,20,22,24,26,28,30,32,34,36,38,40,42,44,46,48,50,52,54,-1,56,58,60,62,64,-1,66,68,70,72,74,76,78,80,82,-1,84,86,88,90,92,94,96,98,100,102,104,106,108,110,112,-1,114,-1,-1,-1,-1,-1,-1,-1,-1,-1,-1,-1,-1,-1,-1,-1,-1,-1,-1,-1,-1,-1,-1,-1,-1,-1,-1,-1,-1,-1,-1,-1,-1,-1,-1,-1,-1,-1,-1,-1,-1,-1,-1,-1,-1,-1,-1,-1,-1,-1,-1,-1,-1,-1,-1],"split_conditions":[5.882353E-2,3.6E1,1E0,-3.0773087E0,3.3358405E0,4.2E1,-1.1083733E1,1.7616117E0,5.776876E0,4.759699E-2,4.4E1,1.6E1,9.788851E0,-5.613136E1,1.1218778E1,-3.9941254E1,-1.2867718E1,4.938858E0,5.563782E-1,-2.9316633E0,-2.1338205E0,-6.4309206E0,-4.7722924E-1,-5.4303117E0,-1.0485792E0,2.841583E0,5.7087723E1,-8.684835E-3,1E0,2.8E1,-2.4290995E1,1.1690972E0,-1.6866444E1,1.3557644E-2,-1.0667742E1,4.528137E0,5.563782E-1,3.2E1,1.4393104E0,-9.852211E-2,-1.885756E0,-8.735446E0,-2.025709E0,-2.7866343E-2,-4.1443315E0,-1.0734105E0,-3.0253673E0,3.259355E1,2.6525793E0,5.3061223E-1,-2.8261764E0,-1.2867718E1,5.6181097E0,2.437179E0,4.5896843E-1,-1.9907238E0,4.7418084E0,5.38759E0,9.2E1,-2.5952142E-2,5.1E1,-3.8293423E-3,1.1368124E-2,5.397028E-3,1.3020846E-4,-2.3667324E-2,-2.676766E-3,-2.536945E-3,6.302425E-3,-1.1406659E-2,1.42756E-3,-1.1641281E-3,1.1805719E-2,1.2259483E-2,1.4499369E-3,-2.2251152E-3,1.1879958E-2,1.7737968E-2,-5.982963E-3,-4.498839E-3,-2.8593801E-2,2.051895E-2,-4.328086E-3,-1.860704E-2,3.7592323E-4,-9.325323E-3,1.5555129E-2,-2.6838381E-3,-1.3446774E-2,-4.082613E-3,-1.8863957E-2,4.820614E-4,-2.1317767E-3,1.4424205E-3,4.2102356E-3,1.9935663E-3,6.0739676E-5,8.35349E-3,3.361727E-4,-2.3149406E-3,-1.585651E-2,-3.826971E-3,4.351206E-3,-4.9266214E-3,-1.7316747E-2,9.674628E-3,-8.769954E-3,1.7920146E-2,6.7371023E-3,2.4935459E-3,5.4580467E-3,7.511739E-4,5.0264476E-3,3.27815E-4,-1.7077051E-2],"split_indices":[7,0,7,2,5,0,2,4,2,2,0,0,5,5,2,5,2,2,4,5,4,2,2,4,4,2,5,0,6,0,5,4,5,0,2,2,4,0,4,2,4,5,4,0,4,2,4,5,4,7,2,2,4,4,4,4,4,2,0,0,0,0,0,0,0,0,0,0,0,0,0,0,0,0,0,0,0,0,0,0,0,0,0,0,0,0,0,0,0,0,0,0,0,0,0,0,0,0,0,0,0,0,0,0,0,0,0,0,0,0,0,0,0,0,0],"split_type":[0,0,0,0,0,0,0,0,0,0,0,0,0,0,0,0,0,0,0,0,0,0,0,0,0,0,0,0,0,0,0,0,0,0,0,0,0,0,0,0,0,0,0,0,0,0,0,0,0,0,0,0,0,0,0,0,0,0,0,0,0,0,0,0,0,0,0,0,0,0,0,0,0,0,0,0,0,0,0,0,0,0,0,0,0,0,0,0,0,0,0,0,0,0,0,0,0,0,0,0,0,0,0,0,0,0,0,0,0,0,0,0,0,0,0],"sum_hessian":[5.3353E4,8.707419E3,4.4645582E4,5.6008525E3,3.1065664E3,3.5743258E4,8.902322E3,1.2246158E3,4.376237E3,2.3667625E3,7.398038E2,2.4846297E4,1.0896963E4,1.8051836E2,8.721804E3,1.00392957E3,2.2068628E2,3.5527175E3,8.235194E2,1.5665371E3,8.0022546E2,2.0153513E2,5.382686E2,1.188696E4,1.2959336E4,8.749244E3,2.147719E3,1.4494031E1,1.6602432E2,8.567985E3,1.5381825E2,2.3392989E2,7.699997E2,1.8368242E1,2.0231804E2,3.3459263E3,2.0679128E2,6.805768E2,1.4294264E2,1.4314652E3,1.3507187E2,1.1443436E2,6.857911E2,1.074794E1,1.9078719E2,2.1276445E2,3.2550418E2,2.9505E2,1.159191E4,3.9374675E3,9.021868E3,6.939904E3,1.8093397E3,1.933248E3,2.1447087E2,2.0489689E1,1.4553464E2,4.532286E3,4.0356995E3,1.249773E1,1.4132053E2,2.0856412E2,2.536577E1,4.6709525E2,3.0290442E2,1.7871511E1,1.8444653E2,3.2228555E3,1.2307085E2,1.7180424E2,3.4987026E1,6.558412E2,2.4735592E1,6.759363E1,7.5349014E1,1.4004794E3,3.0985886E1,7.1469864E1,6.3602005E1,7.945479E1,3.497957E1,1.1119012E1,6.746721E2,1.3371222E1,1.7741595E2,1.8990457E2,2.2859884E1,5.4713703E1,2.7079047E2,2.695555E2,2.5494484E1,9.852526E3,1.7393845E3,2.965006E3,9.7246155E2,2.7704434E3,6.2514253E3,1.718151E2,6.768089E3,1.7815972E3,2.774256E1,1.7143729E3,2.188751E2,1.3302802E2,8.1442856E1,1.0369337E1,1.0120352E1,8.944131E1,5.6093327E1,3.9002156E3,6.320705E2,3.63195E3,4.0374954E2,1.2108045E2,2.0240068E1],"tree_param":{"num_deleted":"0","num_feature":"9","num_nodes":"115","size_leaf_vector":"1"}},{"base_weights":[6.402173E-4,-1.2577548E-2,6.7049526E-2,-5.159003E-3,-9.559819E-2,7.865838E-2,-7.34738E-2,-4.7672056E-2,5.92636E-3,-1.2603945E-2,-1.2887089E-1,-9.080643E-3,9.263098E-2,-3.9400506E-1,-4.6204053E-2,-7.683045E-2,3.2302737E-2,1.995463E-2,-1.3665873E-2,-8.518793E-2,1.1093919E-1,-3.082534E-2,-1.5602131E-1,2.0792818E-1,-2.7106863E-2,1.631139E-1,6.872766E-2,-6.141746E-1,4.7667907E-3,-1.4052176E-2,-3.3927685E-1,-6.3758075E-2,-1.785849E-1,6.905537E-1,2.1945123E-2,3.1156221E-2,-3.3399705E-2,-2.3940703E-1,-1.0746253E-2,-2.4091104E-1,1.7026143E-2,5.6516766E-3,2.0456737E-1,-1.4993948E-1,6.211835E-2,-1.1044683E-1,-2.9491502E-1,2.2045277E-2,1.0498631E-1,-1.48369325E-2,-1.9850709E-2,1.6504226E-2,1.5826021E-1,1.5435724E-1,4.974187E-2,-2.618759E-2,-7.390644E-3,1.19160265E-2,-2.7681185E-2,-2.640221E-2,1.244893E-1,-1.4636829E-4,-2.516173E-3,-6.1755655E-3,8.1132655E-4,3.0137457E-2,9.790577E-3,6.8185236E-3,1.1481099E-4,8.8587456E-4,1.0907014E-2,3.6769452E-5,-2.6080848E-3,9.579403E-3,-8.875794E-3,5.828832E-3,-4.2857544E-4,-6.1407913E-3,-2.701786E-2,1.7336095E-3,-9.209447E-3,-5.4174527E-3,5.0253198E-3,-4.0799356E-3,8.3333915E-3,-2.7422735E-3,-2.0829365E-2,8.633508E-3,-2.5939484E-4,-2.8338542E-3,-1.4063211E-2,-1.17236E-2,-4.8748525E-3,-8.1047295E-3,6.3833953E-3,6.304537E-3,-1.0173436E-3,-2.666799E-3,5.0026593E-3,9.837025E-4,7.3326076E-3,1.9799287E-3,-1.5274248E-3,-1.6677467E-3,4.444479E-3,9.163048E-3,-1.3072753E-3],"categories":[],"categories_nodes":[],"categories_segments":[],"categories_sizes":[],"default_left":[0,0,0,0,0,0,0,0,0,0,0,0,0,0,0,0,0,0,0,0,0,0,0,0,0,0,0,0,0,0,0,0,0,0,0,0,0,0,0,0,0,0,0,0,0,0,0,0,0,0,0,0,0,0,0,0,0,0,0,0,0,0,0,0,0,0,0,0,0,0,0,0,0,0,0,0,0,0,0,0,0,0,0,0,0,0,0,0,0,0,0,0,0,0,0,0,0,0,0,0,0,0,0,0,0,0,0],"id":11,"left_children":[1,3,5,7,9,11,13,15,17,19,21,23,25,27,29,31,33,35,37,39,41,43,45,47,49,51,53,55,-1,57,59,61,63,65,67,69,71,73,75,77,79,81,83,85,87,89,91,-1,93,-1,95,-1,97,99,101,-1,-1,-1,103,-1,105,-1,-1,-1,-1,-1,-1,-1,-1,-1,-1,-1,-1,-1,-1,-1,-1,-1,-1,-1,-1,-1,-1,-1,-1,-1,-1,-1,-1,-1,-1,-1,-1,-1,-1,-1,-1,-1,-1,-1,-1,-1,-1,-1,-1,-1,-1],"loss_changes":[4.681422E1,2.732341E1,1.4457939E1,1.9253626E1,9.978443E0,1.0074966E1,5.629384E0,1.9731585E1,8.898026E0,9.406175E0,6.802147E0,4.306048E0,1.1762405E1,6.6425533E0,5.6963615E0,8.099567E0,1.4984109E1,1.1281136E1,8.760197E0,1.0689152E1,3.7003999E0,6.3622317E0,1.256295E1,3.9863899E0,3.2471206E0,2.8194122E0,8.472326E0,2.5887432E0,0E0,3.0107312E0,1.5668575E1,6.4676704E0,4.0257664E0,2.5800858E0,8.1505995E0,8.223591E0,6.1014104E0,5.53778E0,9.583564E0,5.4149055E0,5.2042446E0,5.672294E0,5.1801863E0,7.5205626E0,5.2336726E0,8.405497E0,5.904331E0,0E0,3.057063E0,0E0,3.2447925E0,0E0,3.772564E0,1.0281025E1,7.1031475E0,0E0,0E0,0E0,2.6746075E0,0E0,1.1795056E0,0E0,0E0,0E0,0E0,0E0,0E0,0E0,0E0,0E0,0E0,0E0,0E0,0E0,0E0,0E0,0E0,0E0,0E0,0E0,0E0,0E0,0E0,0E0,0E0,0E0,0E0,0E0,0E0,0E0,0E0,0E0,0E0,0E0,0E0,0E0,0E0,0E0,0E0,0E0,0E0,0E0,0E0,0E0,0E0,0E0,0E0],"parents":[2147483647,0,0,1,1,2,2,3,3,4,4,5,5,6,6,7,7,8,8,9,9,10,10,11,11,12,12,13,13,14,14,15,15,16,16,17,17,18,18,19,19,20,20,21,21,22,22,23,23,24,24,25,25,26,26,27,27,29,29,30,30,31,31,32,32,33,33,34,34,35,35,36,36,37,37,38,38,39,39,40,40,41,41,42,42,43,43,44,44,45,45,46,46,48,48,50,50,52,52,53,53,54,54,58,58,60,60],"right_children":[2,4,6,8,10,12,14,16,18,20,22,24,26,28,30,32,34,36,38,40,42,44,46,48,50,52,54,56,-1,58,60,62,64,66,68,70,72,74,76,78,80,82,84,86,88,90,92,-1,94,-1,96,-1,98,100,102,-1,-1,-1,104,-1,106,-1,-1,-1,-1,-1,-1,-1,-1,-1,-1,-1,-1,-1,-1,-1,-1,-1,-1,-1,-1,-1,-1,-1,-1,-1,-1,-1,-1,-1,-1,-1,-1,-1,-1,-1,-1,-1,-1,-1,-1,-1,-1,-1,-1,-1,-1],"split_conditions":[1E0,8.167338E1,7.977269E1,8.3333336E-2,-1.4536451E0,7.4214993E0,-3.0773087E0,1.6518381E-1,9.602993E-1,-2.1716256E0,1.8208298E1,-1.954838E0,-3.018642E0,4.5609776E1,8.880633E0,-2.7457577E-1,-1.2867718E1,2.4779265E0,-5.4303117E0,3.0295952E1,3.125E-1,9.9593085E-1,3.6651242E0,-1.1083733E1,-1.388372E1,-5.1932503E1,1E0,8.370363E1,4.7667907E-3,-2.5219443E0,1.5520811E0,-3.613288E0,1.0320155E1,3.048023E0,3.098198E-1,2.437179E0,-3.832767E0,1.1111111E-1,-4.502737E0,5.4830365E0,5.714286E-1,1.8500377E-1,2.0899265E1,8.715461E-1,1.4679853E0,4.595001E0,6.692793E0,2.2045277E-2,1.6101389E0,-1.48369325E-2,-9.4040365E0,1.6504226E-2,-4.6427776E1,1.3160673E0,3.2210417E0,-2.618759E-2,-7.390644E-3,1.19160265E-2,5.985908E0,-2.640221E-2,2.699103E0,-1.4636829E-4,-2.516173E-3,-6.1755655E-3,8.1132655E-4,3.0137457E-2,9.790577E-3,6.8185236E-3,1.1481099E-4,8.8587456E-4,1.0907014E-2,3.6769452E-5,-2.6080848E-3,9.579403E-3,-8.875794E-3,5.828832E-3,-4.2857544E-4,-6.1407913E-3,-2.701786E-2,1.7336095E-3,-9.209447E-3,-5.4174527E-3,5.0253198E-3,-4.0799356E-3,8.3333915E-3,-2.7422735E-3,-2.0829365E-2,8.633508E-3,-2.5939484E-4,-2.8338542E-3,-1.4063211E-2,-1.17236E-2,-4.8748525E-3,-8.1047295E-3,6.3833953E-3,6.304537E-3,-1.0173436E-3,-2.666799E-3,5.0026593E-3,9.837025E-4,7.3326076E-3,1.9799287E-3,-1.5274248E-3,-1.6677467E-3,4.444479E-3,9.163048E-3,-1.3072753E-3],"split_indices":[7,1,1,7,4,1,2,4,2,4,5,4,2,5,2,4,2,4,4,5,7,4,2,2,2,5,6,1,0,2,4,2,5,4,4,4,2,7,4,2,7,2,5,4,4,4,2,0,1,0,2,0,5,2,4,0,0,0,2,0,4,0,0,0,0,0,0,0,0,0,0,0,0,0,0,0,0,0,0,0,0,0,0,0,0,0,0,0,0,0,0,0,0,0,0,0,0,0,0,0,0,0,0,0,0,0,0],"split_type":[0,0,0,0,0,0,0,0,0,0,0,0,0,0,0,0,0,0,0,0,0,0,0,0,0,0,0,0,0,0,0,0,0,0,0,0,0,0,0,0,0,0,0,0,0,0,0,0,0,0,0,0,0,0,0,0,0,0,0,0,0,0,0,0,0,0,0,0,0,0,0,0,0,0,0,0,0,0,0,0,0,0,0,0,0,0,0,0,0,0,0,0,0,0,0,0,0,0,0,0,0,0,0,0,0,0,0],"sum_hessian":[5.3297414E4,4.4445336E4,8.852077E3,4.0807055E4,3.6382827E3,8.180696E3,6.713815E2,8.447784E3,3.235927E4,1.0462753E3,2.5920073E3,1.1190009E3,7.061695E3,4.9093975E1,6.2228754E2,6.19533E3,2.252454E3,1.8872104E4,1.3487165E4,6.6200354E2,3.842718E2,5.670314E2,2.0249761E3,8.2079475E1,1.0369214E3,1.7801278E3,5.281567E3,3.5600266E1,1.34937105E1,5.64194E2,5.809357E1,5.4972646E3,6.980651E2,3.2110954E1,2.220343E3,1.5605895E4,3.2662102E3,1.6795374E2,1.3319212E4,2.6319852E2,3.9880502E2,1.843858E2,1.9988599E2,2.5034679E2,3.1668457E2,1.5301019E3,4.9487408E2,1.0614506E1,7.1464966E1,1.2743356E1,1.024178E3,1.7989199E1,1.7621387E3,9.511408E2,4.3304263E3,1.848856E1,1.7111704E1,1.5115396E1,5.4907855E2,2.6488348E1,3.160522E1,1.4067479E3,4.0905168E3,6.184813E2,7.958385E1,1.4617599E1,1.7493357E1,1.7591765E2,2.0444254E3,1.5533543E4,7.235097E1,1.9789287E3,1.2872815E3,1.3745282E1,1.5420845E2,2.2180014E2,1.3097412E4,2.5270311E2,1.0495393E1,3.570712E2,4.173382E1,8.4193306E1,1.0019249E2,3.3855274E1,1.6603072E2,2.289813E2,2.1365498E1,7.582258E1,2.4086197E2,1.4685139E3,6.158808E1,2.8259674E2,2.1227734E2,1.4243527E1,5.7221443E1,5.5348595E1,9.6882947E2,5.5970474E1,1.7061681E3,4.082987E2,5.428421E2,3.733181E3,5.9724536E2,4.7749493E2,7.1583626E1,1.5864828E1,1.5740393E1],"tree_param":{"num_deleted":"0","num_feature":"9","num_nodes":"107","size_leaf_vector":"1"}},{"base_weights":[-1.6253581E-3,-1.53234275E-2,5.805881E-2,-2.0218673E-1,-8.338887E-3,1.4554633E-1,3.3912487E-2,-2.8176388E-1,-1.0041801E-1,-1.10076545E-2,1.8218915E-1,1.10031664E-1,3.2667804E-1,5.6792602E-2,-5.5731457E-2,-2.9351547E-1,1.5125972E-2,9.733969E-2,-1.648507E-1,-1.3960251E-2,1.3239978E-1,-2.603273E-2,2.0776172E-1,1.0420841E-1,2.715381E-2,3.9768758E-1,-4.457581E-1,1.1763162E-1,2.455173E-2,2.6954195E-2,-9.6366435E-2,-7.049819E-3,-3.2104152E-1,-1.7403947E-1,2.6347718E-1,-6.807453E-1,-1.0244074E-1,1.5238965E-4,-4.865322E-2,3.1211898E-1,1.1932664E-2,2.317968E-1,-2.311712E-2,3.3690953E-1,8.588763E-2,5.6184715E-1,2.1300691E-1,-2.550752E-2,3.6357946E-3,1.4430144E-1,-4.687214E-2,-2.8417073E-2,7.401661E-2,-2.0214961E-1,1.1423563E-1,-1.09705605E-1,2.6030195E-1,3.6135737E-3,-1.8825913E-2,-1.7009523E-2,-7.929383E-3,1.5243308E-3,-1.4206957E-2,1.4029815E-3,1.4858869E-2,-9.831453E-3,-3.2124426E-2,2.7633808E-3,-6.0806363E-3,1.9013004E-3,-2.2908408E-4,-2.8390547E-3,-4.2287802E-4,2.4434188E-2,7.469268E-3,-2.5743853E-2,1.3914341E-3,4.0310598E-4,9.89908E-3,1.2238602E-2,-2.944274E-3,3.3750893E-3,-1.5658718E-3,1.9078687E-2,4.393095E-3,-9.168378E-3,8.113801E-3,5.507192E-3,-4.747611E-4,-9.890368E-3,1.4024698E-3,1.6730459E-3,-2.2768532E-3,2.409432E-3,-1.5925225E-2,-2.3486724E-3,-2.5539069E-2,-1.4026359E-2,4.4278824E-3,-1.0716324E-2,-2.8780282E-3,1.7101698E-2,1.0206142E-3],"categories":[],"categories_nodes":[],"categories_segments":[],"categories_sizes":[],"default_left":[0,0,0,0,0,0,0,0,0,0,0,0,0,0,0,0,0,0,0,0,0,0,0,0,0,0,0,0,0,0,0,0,0,0,0,0,0,0,0,0,0,0,0,0,0,0,0,0,0,0,0,0,0,0,0,0,0,0,0,0,0,0,0,0,0,0,0,0,0,0,0,0,0,0,0,0,0,0,0,0,0,0,0,0,0,0,0,0,0,0,0,0,0,0,0,0,0,0,0,0,0,0,0],"id":12,"left_children":[1,3,5,7,9,11,13,15,17,19,21,23,25,27,29,31,-1,33,35,37,39,-1,41,43,-1,45,47,49,51,53,55,57,59,61,63,65,67,69,71,73,75,77,-1,79,81,83,85,-1,-1,87,89,91,93,95,97,99,101,-1,-1,-1,-1,-1,-1,-1,-1,-1,-1,-1,-1,-1,-1,-1,-1,-1,-1,-1,-1,-1,-1,-1,-1,-1,-1,-1,-1,-1,-1,-1,-1,-1,-1,-1,-1,-1,-1,-1,-1,-1,-1,-1,-1,-1,-1],"loss_changes":[4.3638756E1,5.6588722E1,2.0944748E1,1.2406673E1,2.1213633E1,1.3538078E1,1.6034214E1,8.254173E0,8.877487E0,1.7434647E1,1.5497486E1,7.65271E0,1.947691E1,1.214468E1,5.3669415E0,6.628952E0,0E0,7.7692943E0,1.6348024E1,1.9842878E1,1.7801786E1,0E0,1.3360111E1,7.3720284E0,0E0,9.11496E0,7.390368E0,9.504925E0,1.07181015E1,1.0398989E1,5.060775E0,6.6711636E0,1.0234795E1,4.5932193E0,5.0554137E0,6.2218914E0,9.276552E0,1.4193624E1,1.855823E1,9.573845E0,1.4680925E1,1.1672695E1,0E0,4.195465E0,6.1654816E0,4.5779495E0,4.792005E0,0E0,0E0,1.1755569E1,8.092795E0,7.8804765E0,7.918272E0,1.0865559E1,7.3407207E0,3.221776E0,2.3035533E0,0E0,0E0,0E0,0E0,0E0,0E0,0E0,0E0,0E0,0E0,0E0,0E0,0E0,0E0,0E0,0E0,0E0,0E0,0E0,0E0,0E0,0E0,0E0,0E0,0E0,0E0,0E0,0E0,0E0,0E0,0E0,0E0,0E0,0E0,0E0,0E0,0E0,0E0,0E0,0E0,0E0,0E0,0E0,0E0,0E0,0E0],"parents":[2147483647,0,0,1,1,2,2,3,3,4,4,5,5,6,6,7,7,8,8,9,9,10,10,11,11,12,12,13,13,14,14,15,15,17,17,18,18,19,19,20,20,22,22,23,23,25,25,26,26,27,27,28,28,29,29,30,30,31,31,32,32,33,33,34,34,35,35,36,36,37,37,38,38,39,39,40,40,41,41,43,43,44,44,45,45,46,46,49,49,50,50,51,51,52,52,53,53,54,54,55,55,56,56],"right_children":[2,4,6,8,10,12,14,16,18,20,22,24,26,28,30,32,-1,34,36,38,40,-1,42,44,-1,46,48,50,52,54,56,58,60,62,64,66,68,70,72,74,76,78,-1,80,82,84,86,-1,-1,88,90,92,94,96,98,100,102,-1,-1,-1,-1,-1,-1,-1,-1,-1,-1,-1,-1,-1,-1,-1,-1,-1,-1,-1,-1,-1,-1,-1,-1,-1,-1,-1,-1,-1,-1,-1,-1,-1,-1,-1,-1,-1,-1,-1,-1,-1,-1,-1,-1,-1,-1],"split_conditions":[9.0909094E-1,7.713397E-5,9.881859E-5,4.5454547E-2,1.2979878E-3,6.426493E1,6.3042835E1,1.15E2,-3.1408281E0,1.16E2,2.3553215E1,1.25E2,1.1218778E1,-2.699357E0,2.9E1,5.1601117E-5,1.5125972E-2,-6.826392E0,-1.7723349E0,4.2E1,1.27E2,-2.603273E-2,1.2E2,5.6224133E-5,2.715381E-2,4.1462116E0,7.241367E1,4.7961762E-4,5.0386063E1,2.5549219E0,8.107685E1,4.446215E0,5.961976E-5,-8.469287E0,6.847042E-5,6.847042E-5,8.6348027E-1,-5.965528E0,2.1642391E-4,-8.273582E0,4.300507E1,1.6E1,-2.311712E-2,5.3E1,5.953192E1,7.5E1,1.3E1,-2.550752E-2,3.6357946E-3,5.5E1,5.453664E-4,1.5116353E-4,1.34E2,1.7826567E0,1.071635E-4,6.3465496E1,1E0,3.6135737E-3,-1.8825913E-2,-1.7009523E-2,-7.929383E-3,1.5243308E-3,-1.4206957E-2,1.4029815E-3,1.4858869E-2,-9.831453E-3,-3.2124426E-2,2.7633808E-3,-6.0806363E-3,1.9013004E-3,-2.2908408E-4,-2.8390547E-3,-4.2287802E-4,2.4434188E-2,7.469268E-3,-2.5743853E-2,1.3914341E-3,4.0310598E-4,9.89908E-3,1.2238602E-2,-2.944274E-3,3.3750893E-3,-1.5658718E-3,1.9078687E-2,4.393095E-3,-9.168378E-3,8.113801E-3,5.507192E-3,-4.747611E-4,-9.890368E-3,1.4024698E-3,1.6730459E-3,-2.2768532E-3,2.409432E-3,-1.5925225E-2,-2.3486724E-3,-2.5539069E-2,-1.4026359E-2,4.4278824E-3,-1.0716324E-2,-2.8780282E-3,1.7101698E-2,1.0206142E-3],"split_indices":[7,8,8,7,8,3,3,0,2,0,3,0,2,2,0,8,0,2,2,0,0,0,0,8,0,2,3,8,3,2,3,2,8,2,8,8,2,2,8,2,3,0,0,0,3,0,0,0,0,0,8,8,0,2,8,3,7,0,0,0,0,0,0,0,0,0,0,0,0,0,0,0,0,0,0,0,0,0,0,0,0,0,0,0,0,0,0,0,0,0,0,0,0,0,0,0,0,0,0,0,0,0,0],"split_type":[0,0,0,0,0,0,0,0,0,0,0,0,0,0,0,0,0,0,0,0,0,0,0,0,0,0,0,0,0,0,0,0,0,0,0,0,0,0,0,0,0,0,0,0,0,0,0,0,0,0,0,0,0,0,0,0,0,0,0,0,0,0,0,0,0,0,0,0,0,0,0,0,0,0,0,0,0,0,0,0,0,0,0,0,0,0,0,0,0,0,0,0,0,0,0,0,0,0,0,0,0,0,0],"sum_hessian":[5.339892E4,4.343911E4,9.959813E3,1.5605631E3,4.1878543E4,2.1476467E3,7.812167E3,8.710236E2,6.895395E2,4.1304492E4,5.7405225E2,1.8005804E3,3.4706625E2,6.228705E3,1.5834619E3,8.600535E2,1.0970131E1,1.6729474E2,5.2224475E2,4.047642E4,8.2807166E2,1.1618222E1,5.62434E2,1.7903589E3,1.0221547E1,3.1932825E2,2.773803E1,2.1502827E3,4.078422E3,5.179288E2,1.0655332E3,7.7209145E1,7.8284436E2,6.2347626E1,1.0494712E2,5.3357018E1,4.6888773E2,2.8763422E4,1.1713E4,3.293691E2,4.9870258E2,5.5093616E2,1.149785E1,1.26138725E2,1.6642202E3,1.6546089E2,1.5386734E2,1.6119833E1,1.1618197E1,1.8531326E3,2.9715012E2,1.964986E3,2.1134363E3,1.4057492E2,3.7735385E2,1.0298058E3,3.5727394E1,6.47165E1,1.2492646E1,1.4170245E2,6.411419E2,3.5608307E1,2.6739319E1,5.659794E1,4.834918E1,3.0612986E1,2.2744032E1,1.5780473E2,3.11083E2,3.1601824E3,2.5603238E4,5.0180435E3,6.694956E3,3.32359E1,2.961332E2,1.661915E1,4.820834E2,1.7315768E2,3.777785E2,1.0952688E2,1.6611847E1,1.3986284E3,2.6559186E2,1.3848906E2,2.6971836E1,1.3616051E1,1.4025128E2,1.4904296E3,3.6270312E2,7.397808E1,2.2317204E2,7.046542E2,1.2603318E3,2.0941924E3,1.9243729E1,1.2057939E2,1.999552E1,1.8240238E1,3.5911362E2,4.973628E1,9.800695E2,1.2866476E1,2.2860916E1],"tree_param":{"num_deleted":"0","num_feature":"9","num_nodes":"103","size_leaf_vector":"1"}},{"base_weights":[4.1798134E-3,1.3272964E-3,1.8397683E-1,7.850243E-3,-7.43599E-2,-2.516059E-2,2.0601632E-1,-8.547259E-2,1.2684948E-2,1.2799934E-1,-9.516137E-2,2.4905261E-1,-7.083266E-2,-1.065863E-1,2.7002868E-1,8.201212E-2,6.442271E-3,-7.766492E-2,3.0309162E-1,-1.9983392E-2,-1.4162686E-1,1.874353E-1,5.412892E-1,2.011173E-1,-1.5104981E-1,-4.0240634E-2,-2.1617219E-1,6.832523E-1,4.8180334E-3,1.4750056E-2,1.3401453E-1,-6.356562E-2,1.1905248E-2,-5.841421E-1,4.5972805E-2,3.6804342E-1,-7.666244E-2,-3.2826737E-1,-5.1002773E-3,-1.1796154E-1,-3.8418984E-1,6.955985E-1,1.609202E-1,2.4288744E-5,6.18785E-1,1.5180748E-2,-3.788973E-3,1.1083552E-1,-3.7031445E-1,-1.7971322E-3,1.2654892E-2,-7.5862454E-3,4.7910292E-4,3.4393806E-2,1.0454869E-2,-4.020527E-3,1.1473736E-2,-4.265356E-4,7.1592815E-3,-1.2497278E-2,4.2661987E-3,3.5090046E-3,-2.4351303E-3,2.646414E-3,1.3540432E-4,-2.735704E-2,5.107834E-3,7.831046E-3,-3.10608E-3,2.541232E-3,1.4846396E-2,-1.1504289E-2,6.483877E-3,1.589892E-2,-2.0521859E-2,1.3552913E-2,-4.245537E-4,-4.985868E-3,2.609E-4,-2.5748419E-2,-8.889237E-3,7.879784E-3,3.2996397E-2,1.3094332E-2,3.229379E-3,4.0299026E-3,2.0842323E-2,1.8026613E-2,-1.1239202E-2,-2.8003952E-2,-2.8884553E-3],"categories":[],"categories_nodes":[],"categories_segments":[],"categories_sizes":[],"default_left":[0,0,0,0,0,0,0,0,0,0,0,0,0,0,0,0,0,0,0,0,0,0,0,0,0,0,0,0,0,0,0,0,0,0,0,0,0,0,0,0,0,0,0,0,0,0,0,0,0,0,0,0,0,0,0,0,0,0,0,0,0,0,0,0,0,0,0,0,0,0,0,0,0,0,0,0,0,0,0,0,0,0,0,0,0,0,0,0,0,0,0],"id":13,"left_children":[1,3,5,7,9,-1,11,13,15,17,19,21,23,25,27,29,31,33,35,37,39,41,43,45,47,49,51,53,55,57,59,61,63,65,67,69,71,73,75,77,79,81,83,-1,85,-1,-1,87,89,-1,-1,-1,-1,-1,-1,-1,-1,-1,-1,-1,-1,-1,-1,-1,-1,-1,-1,-1,-1,-1,-1,-1,-1,-1,-1,-1,-1,-1,-1,-1,-1,-1,-1,-1,-1,-1,-1,-1,-1,-1,-1],"loss_changes":[2.7344942E1,2.5970251E1,1.8798796E1,2.1847002E1,1.7573786E1,0E0,9.861874E0,1.7868952E1,1.9912704E1,1.4117111E1,1.3143753E1,1.22054825E1,2.4342377E0,1.6234756E1,1.4212056E1,1.3222654E1,1.6158865E1,1.15013485E1,5.408514E0,6.4974365E0,1.306926E1,7.3013515E0,4.75914E0,2.7617745E0,5.234293E0,1.2668667E1,7.337391E0,6.3917446E0,4.6144476E0,1.0914511E1,9.634525E0,9.716096E0,2.2097492E1,9.574556E0,4.780563E0,6.156822E0,3.0665865E0,2.075559E1,5.5413337E0,1.3114857E1,7.4514256E0,3.5954762E0,7.921605E0,0E0,3.2646408E0,0E0,0E0,1.0165093E1,6.88358E0,0E0,0E0,0E0,0E0,0E0,0E0,0E0,0E0,0E0,0E0,0E0,0E0,0E0,0E0,0E0,0E0,0E0,0E0,0E0,0E0,0E0,0E0,0E0,0E0,0E0,0E0,0E0,0E0,0E0,0E0,0E0,0E0,0E0,0E0,0E0,0E0,0E0,0E0,0E0,0E0,0E0,0E0],"parents":[2147483647,0,0,1,1,2,2,3,3,4,4,6,6,7,7,8,8,9,9,10,10,11,11,12,12,13,13,14,14,15,15,16,16,17,17,18,18,19,19,20,20,21,21,22,22,23,23,24,24,25,25,26,26,27,27,28,28,29,29,30,30,31,31,32,32,33,33,34,34,35,35,36,36,37,37,38,38,39,39,40,40,41,41,42,42,44,44,47,47,48,48],"right_children":[2,4,6,8,10,-1,12,14,16,18,20,22,24,26,28,30,32,34,36,38,40,42,44,46,48,50,52,54,56,58,60,62,64,66,68,70,72,74,76,78,80,82,84,-1,86,-1,-1,88,90,-1,-1,-1,-1,-1,-1,-1,-1,-1,-1,-1,-1,-1,-1,-1,-1,-1,-1,-1,-1,-1,-1,-1,-1,-1,-1,-1,-1,-1,-1,-1,-1,-1,-1,-1,-1,-1,-1,-1,-1,-1,-1],"split_conditions":[1.175646E-3,8.167338E1,2.3553215E1,7.713397E-5,1.02992446E-4,-2.516059E-2,2.890258E0,6.6197464E1,9.986474E-5,6.4478035E1,3.4713024E1,1.5520811E0,4.342174E1,1.164234E0,3.5977454E0,4.9295914E1,1.16641015E-4,7.227293E-5,8.648891E0,1.16641015E-4,6.464494E-4,2.555261E0,-6.5690174E0,-2.402843E0,-3.2324318E1,4.196253E0,5.7312283E1,6.4434375E-5,7.125456E1,6.0708977E1,6.809007E-1,-7.5751686E0,1.3563402E-4,5.563782E-1,-1.2038745E0,7.713397E-5,7.462098E1,-1.954838E0,1.20870696E-4,3.1551623E-4,6.8647123E-4,-2.699357E0,3.348948E1,2.4288744E-5,3.862985E1,1.5180748E-2,-3.788973E-3,1.5110476E-3,3.389522E1,-1.7971322E-3,1.2654892E-2,-7.5862454E-3,4.7910292E-4,3.4393806E-2,1.0454869E-2,-4.020527E-3,1.1473736E-2,-4.265356E-4,7.1592815E-3,-1.2497278E-2,4.2661987E-3,3.5090046E-3,-2.4351303E-3,2.646414E-3,1.3540432E-4,-2.735704E-2,5.107834E-3,7.831046E-3,-3.10608E-3,2.541232E-3,1.4846396E-2,-1.1504289E-2,6.483877E-3,1.589892E-2,-2.0521859E-2,1.3552913E-2,-4.245537E-4,-4.985868E-3,2.609E-4,-2.5748419E-2,-8.889237E-3,7.879784E-3,3.2996397E-2,1.3094332E-2,3.229379E-3,4.0299026E-3,2.0842323E-2,1.8026613E-2,-1.1239202E-2,-2.8003952E-2,-2.8884553E-3],"split_indices":[8,1,3,8,8,0,4,3,8,3,3,4,3,2,2,3,8,8,2,8,8,1,2,2,5,4,1,8,3,1,1,2,8,4,4,8,3,4,8,8,8,2,3,0,3,0,0,8,1,0,0,0,0,0,0,0,0,0,0,0,0,0,0,0,0,0,0,0,0,0,0,0,0,0,0,0,0,0,0,0,0,0,0,0,0,0,0,0,0,0,0],"split_type":[0,0,0,0,0,0,0,0,0,0,0,0,0,0,0,0,0,0,0,0,0,0,0,0,0,0,0,0,0,0,0,0,0,0,0,0,0,0,0,0,0,0,0,0,0,0,0,0,0,0,0,0,0,0,0,0,0,0,0,0,0,0,0,0,0,0,0,0,0,0,0,0,0,0,0,0,0,0,0,0,0,0,0,0,0,0,0,0,0,0,0],"sum_hessian":[5.3496676E4,5.2665914E4,8.307601E2,4.8494883E4,4.1710337E3,1.5484063E1,8.15276E2,2.3818562E3,4.6113027E4,3.855932E2,3.7854407E3,7.0732837E2,1.0794767E2,2.2509746E3,1.3088168E2,3.8006848E3,4.231234E4,1.7651503E2,2.0907819E2,1.4511693E3,2.3342715E3,5.8828394E2,1.19044426E2,2.2482092E1,8.5465576E1,1.4066533E3,8.4432135E2,4.919435E1,8.168733E1,1.6625094E3,2.1381755E3,3.0546243E3,3.9257715E4,3.3966675E1,1.4254836E2,1.7971814E2,2.936004E1,6.3345406E1,1.3878239E3,2.1313618E3,2.0290948E2,2.5735552E1,5.625484E2,1.5991018E1,1.03053406E2,1.1866999E1,1.0615094E1,3.8359013E1,4.7106564E1,1.3519431E3,5.471021E1,7.3076025E2,1.1356105E2,1.7976648E1,3.1217701E1,5.970397E1,2.198336E1,1.4717319E3,1.9077736E2,2.8990433E1,2.109185E3,2.6789005E2,2.7867341E3,3.4590354E3,3.579868E4,2.3849997E1,1.0116677E1,5.9218063E1,8.3330284E1,5.7824253E1,1.2189389E2,1.4868119E1,1.449192E1,1.7865854E1,4.547955E1,2.398821E1,1.3638357E3,1.545954E3,5.854079E2,2.8099718E1,1.7480977E2,1.4617763E1,1.1117788E1,8.728756E1,4.752608E2,1.5610636E1,8.744277E1,1.9365469E1,1.8993546E1,1.3246647E1,3.3859917E1],"tree_param":{"num_deleted":"0","num_feature":"9","num_nodes":"91","size_leaf_vector":"1"}},{"base_weights":[-3.9358507E-3,-7.326692E-2,9.511218E-3,-2.2369732E-1,-5.0494432E-2,-3.9166263E-3,5.8084432E-2,-2.4820124E-1,2.9104143E-1,-7.538878E-3,-1.0717979E-1,5.926406E-3,-6.261037E-2,1.06564574E-1,2.8257776E-2,-1.719191E-1,-3.7550136E-1,4.5832208E-1,-8.245906E-3,-3.3425435E-2,7.343104E-2,-9.342007E-2,-3.7958035E-1,2.9156853E-3,1.5746722E-1,-9.915734E-3,-1.3192359E-1,3.2893863E-2,1.508962E-1,7.625374E-2,-2.1906E-2,-2.3203164E-1,-2.9183587E-2,-2.8120282E-1,-5.50686E-1,2.4426905E-2,7.733052E-2,-3.745599E-2,4.825019E-1,-6.345007E-1,9.444699E-2,-1.4637609E-1,3.9810047E-2,-4.9686506E-1,2.838027E-1,9.95422E-3,-6.5230586E-2,1.837505E-1,-2.2888144E-2,-1.6874393E-2,2.4596557E-2,2.7469385E-1,-1.4851828E-1,4.949994E-2,-2.7861685E-1,1.6750948E-1,-4.337802E-2,1.7085633E-1,4.111812E-2,-2.5425961E-2,1.7929662E-2,3.861258E-3,-8.0726715E-3,2.4269104E-3,-7.952376E-3,-1.2731121E-2,-2.7285647E-3,-2.4222935E-2,-8.479891E-3,-7.396648E-3,1.237445E-2,-7.286911E-4,-5.1353895E-3,2.3006506E-2,2.6262947E-3,-2.5406938E-2,-6.430348E-3,2.4628297E-3,2.6504047E-2,1.4129728E-3,-5.1224707E-3,2.2094555E-3,-8.625191E-3,-2.1844858E-2,-4.3850318E-3,-7.518037E-4,1.661336E-2,-3.462902E-4,8.6754985E-4,-9.267052E-3,-1.3005602E-3,-1.4612278E-2,6.458556E-3,-1.6820192E-4,-1.5182326E-2,-0E0,1.2547167E-2,-7.7474397E-3,-2.4832794E-3,1.0816597E-3,1.4608026E-2,-1.2829475E-2,-4.8586048E-4,1.6121777E-2,4.8040794E-3,-1.1292439E-2,3.410771E-3,3.3175068E-3,8.976971E-3,-1.4734871E-3,2.666398E-3,-1.4292885E-3,2.0951016E-3],"categories":[],"categories_nodes":[],"categories_segments":[],"categories_sizes":[],"default_left":[0,0,0,0,0,0,0,0,0,0,0,0,0,0,0,0,0,0,0,0,0,0,0,0,0,0,0,0,0,0,0,0,0,0,0,0,0,0,0,0,0,0,0,0,0,0,0,0,0,0,0,0,0,0,0,0,0,0,0,0,0,0,0,0,0,0,0,0,0,0,0,0,0,0,0,0,0,0,0,0,0,0,0,0,0,0,0,0,0,0,0,0,0,0,0,0,0,0,0,0,0,0,0,0,0,0,0,0,0,0,0,0,0],"id":14,"left_children":[1,3,5,7,9,11,13,15,17,19,21,23,25,27,29,31,33,35,-1,37,39,41,43,45,47,49,51,53,55,57,59,61,63,65,67,-1,69,71,73,75,77,79,81,83,85,87,89,91,-1,93,-1,95,97,99,101,103,105,107,109,111,-1,-1,-1,-1,-1,-1,-1,-1,-1,-1,-1,-1,-1,-1,-1,-1,-1,-1,-1,-1,-1,-1,-1,-1,-1,-1,-1,-1,-1,-1,-1,-1,-1,-1,-1,-1,-1,-1,-1,-1,-1,-1,-1,-1,-1,-1,-1,-1,-1,-1,-1,-1,-1],"loss_changes":[4.9831345E1,2.958633E1,2.9203888E1,1.4479214E1,1.8317749E1,2.0271835E1,1.3947285E1,1.0167099E1,5.2392206E0,8.999242E0,1.1868076E1,1.3606823E1,1.8333363E1,1.1936871E1,1.4505554E1,5.7484856E0,5.943447E0,5.0348816E0,0E0,6.6028166E0,1.5290157E1,2.19125E1,1.235457E1,1.4085908E1,1.4049796E1,1.6194338E1,1.4676708E1,7.1118145E0,7.4886627E0,1.0110882E1,6.1474485E0,6.5628166E0,5.543298E0,6.9753017E0,8.4482765E0,0E0,2.767641E0,5.602609E0,2.1892838E0,1.7383413E0,9.219185E0,1.0541561E1,9.67819E0,1.0061832E1,2.2715325E0,1.0884507E1,1.44471445E1,1.2071819E1,0E0,1.5437099E1,0E0,3.1376657E0,1.4861084E1,7.4924154E0,2.4708977E0,5.2566643E0,9.639701E0,6.144026E0,9.729364E0,6.180348E0,0E0,0E0,0E0,0E0,0E0,0E0,0E0,0E0,0E0,0E0,0E0,0E0,0E0,0E0,0E0,0E0,0E0,0E0,0E0,0E0,0E0,0E0,0E0,0E0,0E0,0E0,0E0,0E0,0E0,0E0,0E0,0E0,0E0,0E0,0E0,0E0,0E0,0E0,0E0,0E0,0E0,0E0,0E0,0E0,0E0,0E0,0E0,0E0,0E0,0E0,0E0,0E0,0E0],"parents":[2147483647,0,0,1,1,2,2,3,3,4,4,5,5,6,6,7,7,8,8,9,9,10,10,11,11,12,12,13,13,14,14,15,15,16,16,17,17,19,19,20,20,21,21,22,22,23,23,24,24,25,25,26,26,27,27,28,28,29,29,30,30,31,31,32,32,33,33,34,34,36,36,37,37,38,38,39,39,40,40,41,41,42,42,43,43,44,44,45,45,46,46,47,47,49,49,51,51,52,52,53,53,54,54,55,55,56,56,57,57,58,58,59,59],"right_children":[2,4,6,8,10,12,14,16,18,20,22,24,26,28,30,32,34,36,-1,38,40,42,44,46,48,50,52,54,56,58,60,62,64,66,68,-1,70,72,74,76,78,80,82,84,86,88,90,92,-1,94,-1,96,98,100,102,104,106,108,110,112,-1,-1,-1,-1,-1,-1,-1,-1,-1,-1,-1,-1,-1,-1,-1,-1,-1,-1,-1,-1,-1,-1,-1,-1,-1,-1,-1,-1,-1,-1,-1,-1,-1,-1,-1,-1,-1,-1,-1,-1,-1,-1,-1,-1,-1,-1,-1,-1,-1,-1,-1,-1,-1],"split_conditions":[5.882353E-2,8.288922E-5,9.166667E-1,2.6525793E0,3E1,6.9737E1,1.2701441E-4,1.4701416E0,4.089989E0,2.1E1,6.231755E-4,1.175646E-3,4E1,2.1739777E1,2.7E1,4.6E1,2.6E1,-1.0211526E0,-8.245906E-3,1.5143971E1,8.6742744E-5,2.1974093E-4,1.2979878E-3,6.464494E-4,1.15E2,1.9613772E-3,9.881859E-5,2.0482382E1,8.880633E0,-2.6393788E0,1.3494288E1,-4.3766775E0,4.1182037E1,-9.1804224E-1,4.2E1,2.4426905E-2,2.8956587E1,6.727245E1,4E0,4.1182037E1,1.1218778E1,-7.5751686E0,8.26684E1,-9.964877E-1,4.621386E1,2.2833655E-4,4.4041886E0,9.090909E-2,-2.2888144E-2,5.1073904E0,2.4596557E-2,7.876094E-5,2.3186849E-4,1.2496933E-4,1.02992446E-4,5.1601117E-5,1.2E1,3.084953E1,5.2069074E-1,7.7E1,1.7929662E-2,3.861258E-3,-8.0726715E-3,2.4269104E-3,-7.952376E-3,-1.2731121E-2,-2.7285647E-3,-2.4222935E-2,-8.479891E-3,-7.396648E-3,1.237445E-2,-7.286911E-4,-5.1353895E-3,2.3006506E-2,2.6262947E-3,-2.5406938E-2,-6.430348E-3,2.4628297E-3,2.6504047E-2,1.4129728E-3,-5.1224707E-3,2.2094555E-3,-8.625191E-3,-2.1844858E-2,-4.3850318E-3,-7.518037E-4,1.661336E-2,-3.462902E-4,8.6754985E-4,-9.267052E-3,-1.3005602E-3,-1.4612278E-2,6.458556E-3,-1.6820192E-4,-1.5182326E-2,-0E0,1.2547167E-2,-7.7474397E-3,-2.4832794E-3,1.0816597E-3,1.4608026E-2,-1.2829475E-2,-4.8586048E-4,1.6121777E-2,4.8040794E-3,-1.1292439E-2,3.410771E-3,3.3175068E-3,8.976971E-3,-1.4734871E-3,2.666398E-3,-1.4292885E-3,2.0951016E-3],"split_indices":[7,8,7,4,0,1,8,2,4,0,8,8,0,1,0,0,0,2,0,2,8,8,8,8,0,8,8,1,2,2,2,4,1,4,0,0,1,1,0,1,2,2,1,4,1,8,1,7,0,4,0,8,8,8,8,8,0,1,2,0,0,0,0,0,0,0,0,0,0,0,0,0,0,0,0,0,0,0,0,0,0,0,0,0,0,0,0,0,0,0,0,0,0,0,0,0,0,0,0,0,0,0,0,0,0,0,0,0,0,0,0,0,0],"split_type":[0,0,0,0,0,0,0,0,0,0,0,0,0,0,0,0,0,0,0,0,0,0,0,0,0,0,0,0,0,0,0,0,0,0,0,0,0,0,0,0,0,0,0,0,0,0,0,0,0,0,0,0,0,0,0,0,0,0,0,0,0,0,0,0,0,0,0,0,0,0,0,0,0,0,0,0,0,0,0,0,0,0,0,0,0,0,0,0,0,0,0,0,0,0,0,0,0,0,0,0,0,0,0,0,0,0,0,0,0,0,0,